1134 30
'click' 0.107360 0.719548 -0.104006 -0.291582 1.291840 -0.360014 0.461650 -1.654844 -0.536453 0.523813 0.056463 -0.316750 0.581929 -0.045755 0.748787 -0.302082 0.302806 -1.663666 -0.454152 -1.091601 0.416870 -0.003860 0.051923 0.105509 0.137693 0.864888 0.170827 -1.570292 0.194662 -0.015867
'newest 1.756919 0.188272 0.109497 0.475201 0.685468 -0.232816 -1.072847 -0.453222 1.203944 -0.593703 1.311774 0.160750 0.327609 -0.821099 -0.801294 -1.295925 -0.338134 0.700986 -0.635414 -0.431902 1.003341 -0.671417 0.317613 0.329368 0.159287 -1.098640 0.117425 -0.505917 0.633654 0.667210
16gb 0.447217 0.475816 -0.018614 -0.645973 -0.168206 0.379153 -1.205909 -0.516032 1.608468 -0.459889 1.119510 0.378618 0.469255 -0.994919 0.545813 -1.300471 0.008840 -1.173809 -1.173647 0.886008 2.005018 -0.983740 -0.825055 0.944322 -0.718691 -0.802986 0.144198 -0.166584 1.012954 0.510782
1st 0.273020 0.168349 -0.065550 0.008950 1.192251 0.022350 -0.284234 0.319070 -0.080889 0.596502 -1.343019 0.893221 -0.577341 1.219717 -0.601618 -0.237865 -0.054396 -0.931067 -0.933760 -0.162934 1.284463 -0.633940 0.727424 -0.698323 0.140658 -1.244140 0.932651 1.155951 0.059320 0.525452
2nd 1.514370 -1.256975 0.668873 -0.370504 2.218815 -0.013167 -0.524492 -0.735585 0.221604 1.532123 0.459218 1.255129 0.085645 0.806924 0.802413 0.365994 0.473032 -0.951424 -0.416175 -0.061231 -0.601828 -0.531540 0.106219 0.311783 0.318514 0.247063 1.815473 0.016900 0.652789 -0.504451
3rd 0.425236 1.658203 -0.038013 -0.866681 1.575956 -0.516834 -1.276365 -0.051329 -0.731059 0.883036 -0.063678 -1.030795 0.900720 0.179082 -1.263017 -1.417537 -1.103877 0.773844 -0.827057 -0.754520 -0.216909 -0.074416 -0.114744 1.108427 -0.111763 -2.152613 1.519144 0.937781 0.818371 -0.142364
4th 0.349921 0.575028 0.147337 -0.313580 1.175109 -0.525769 0.468360 0.116667 -0.936851 -1.137649 -0.499366 0.605933 1.255408 0.167575 -0.916411 -1.332730 1.148502 -0.270318 -0.672616 1.593430 -0.250401 -0.211201 0.612557 0.028791 -0.034957 -0.321413 0.620737 0.815178 0.633836 -0.308660
4yr 0.697516 0.867934 -0.666130 -0.671027 0.564883 1.473007 0.287482 -0.334128 0.323671 0.134613 1.266078 -0.124092 0.445645 -0.401927 0.055359 -1.608179 0.246840 0.420669 -1.017039 0.398686 0.420907 0.343204 1.026294 -0.045448 -1.306752 -0.671054 -0.281285 -0.486512 0.857237 -0.710434
5x 0.955265 -1.168160 0.165970 -1.105401 1.114219 1.380518 -0.537009 -1.450488 0.306826 0.333512 0.212921 -0.367254 -0.371338 1.344001 0.118200 -0.931612 0.414357 -1.122656 -1.470245 -0.080865 0.274341 1.270034 -0.010027 -0.769543 0.181804 -0.635129 0.308331 -0.691440 0.138286 -0.186644
64gb 0.878958 -1.025382 0.291525 -0.988445 0.848591 -0.301792 -1.359204 -0.938039 -0.210130 -0.574940 0.934755 -1.288052 0.776119 0.233604 -0.272401 0.042303 1.090180 -0.056533 0.389030 0.455740 1.135383 0.674307 -1.580111 -0.710681 0.386063 -0.441742 0.791304 0.201160 0.754400 -0.604869
8gb 0.839035 0.450876 -0.205004 -1.449511 0.519362 0.864456 -1.301003 -0.566628 1.011539 1.065707 -0.959049 -0.215330 1.283400 0.195683 1.105912 -0.099481 0.775054 -0.037534 -0.849575 -0.284397 1.438515 0.647643 -1.209775 -0.161453 -0.646449 -0.187182 -0.388434 0.573593 0.812013 0.757298
8th 0.157998 -0.599393 -0.573972 -0.615699 2.599957 1.135085 -0.974450 0.174854 -0.142899 0.755622 -0.017846 -0.068937 -0.163727 1.372424 1.084027 -1.067846 0.593284 -1.298295 0.680982 0.846283 1.212929 0.370884 0.415791 0.269312 -0.223310 -1.436024 0.424835 -1.494668 -0.913325 0.319111
a 0.196522 0.535339 0.087819 0.068315 0.927792 -0.081748 -0.089073 -0.331738 0.088669 -0.693704 -1.051683 0.779312 0.855075 0.057850 0.570052 -0.609471 0.328532 -0.101949 0.009417 -0.801235 -0.006680 -0.547551 -0.386514 -0.424514 -0.698681 0.036107 0.087552 0.316216 0.060757 -0.372930
able -0.203017 -0.026616 1.695833 -0.103540 0.329310 -0.397055 -1.340271 -0.845046 0.223395 0.743195 0.216079 1.424112 1.846273 -0.471990 0.642021 0.447135 0.026465 -0.570467 0.393156 1.102745 0.518374 0.746907 0.001618 -1.112222 -1.446374 0.250123 0.539500 0.323236 -0.261784 0.184445
about -0.133624 0.604577 -1.186951 -0.914367 1.106194 -0.186696 -0.217331 0.031978 0.393280 0.624184 -0.148079 -1.094375 0.137224 0.259746 0.551211 -0.608745 0.968875 0.692238 -1.511792 -0.190821 1.359942 1.224366 -1.304714 -0.380398 0.120697 -1.524915 0.299208 0.705321 0.237594 -0.492759
access -0.207690 -0.205984 0.120244 0.632575 1.091869 1.601590 -0.675890 -1.253287 -0.472999 -1.362370 1.182788 -0.379456 1.053836 0.621587 0.371504 -0.583256 -1.582888 -0.535587 -0.936373 0.446650 0.546931 0.148806 0.715769 -0.067521 -1.059152 0.230981 0.574186 0.566604 0.437331 -0.193508
accidently -0.489122 0.638056 -0.443251 -0.218371 0.078174 0.221274 0.970526 -0.039233 -0.570110 0.802457 0.475366 -0.588701 1.068200 0.329109 0.660698 -0.748256 0.269242 -0.118686 -0.163205 0.038761 1.222907 0.912565 0.549920 -1.124808 -1.858971 0.773909 0.046127 0.054515 1.322043 -0.831730
account -0.670199 0.447305 0.516276 0.133378 1.242276 -0.343053 0.569092 1.465791 -0.563950 0.049005 0.847776 -0.220470 1.487316 -0.568903 0.169843 -1.444952 -0.265773 0.462552 -1.055980 1.066845 0.256392 -0.463576 -0.344418 -1.155366 -0.258580 -0.323068 -0.264103 -0.092267 1.161084 -2.319376
activated -1.245462 0.047267 1.053001 0.379422 0.959669 0.729494 -0.397942 -1.583865 -1.002754 -0.602591 1.429609 -1.140921 1.031559 0.608122 -0.868708 -1.761527 -1.121017 -0.890849 -0.531500 0.090112 -0.354670 -0.201382 0.053628 0.692286 -1.043422 -1.182307 1.952573 1.224769 0.675772 0.024042
active 0.237340 0.119228 0.112357 -1.183324 0.984478 -0.234590 -0.235489 -0.446584 0.094132 0.813855 -1.100966 -0.451176 0.525654 -0.520927 0.738678 -1.219408 1.304887 0.588126 -0.050985 0.387080 1.132694 -0.103718 -1.191121 -0.827886 -0.097940 -0.825174 -0.164163 0.869526 0.016285 1.206286
actual 1.380810 -0.570307 -0.685264 -0.297314 0.617475 0.201594 0.060260 1.092574 -0.118847 -0.615899 -0.644249 -0.964464 0.714165 0.139450 -0.593205 -0.496310 0.936324 0.784239 0.611912 -0.952603 1.310466 0.970078 -0.396829 0.374033 -1.055405 -0.338092 0.638555 -1.280145 0.189425 0.420704
actually 1.058552 -1.413117 0.150452 0.591223 0.565135 0.027206 -0.266305 -0.743769 0.149887 -0.509921 0.190583 0.668593 1.689280 0.180696 -0.968387 -0.334613 -0.965963 0.226666 0.010158 1.250705 1.156024 1.120685 -1.053042 -0.475955 0.328503 0.229184 1.953879 -1.396446 0.741910 0.757701
add -0.348886 -1.202025 -0.077568 0.742961 1.251290 1.268774 1.712920 0.798597 -0.482960 -1.542838 0.232924 0.426582 1.196411 -0.309119 -0.158796 0.223133 0.367720 -0.691190 1.692451 0.680229 1.406280 1.785835 -1.142852 0.337616 -0.323486 0.561759 0.424685 0.377213 0.073248 -0.059135
adding -0.168254 0.655286 1.115821 -0.080521 0.596140 -0.183756 1.315566 -0.176902 -0.981906 1.076484 1.891454 1.219942 0.682998 -0.323404 0.424408 -0.790017 -1.148528 -0.709333 -0.245545 0.641264 0.956245 0.235131 1.069041 0.390317 0.946579 -0.792021 -0.271960 -0.381323 -0.114597 -0.570919
ads -1.316586 0.219203 1.504485 -0.132883 1.687055 -0.847932 -0.573440 1.674238 -1.029477 -0.300431 0.660692 1.104459 -0.123289 -0.408957 -0.256142 -0.637505 0.503402 -1.394010 0.772502 -1.311179 -0.034936 1.271101 -0.729949 0.928533 -1.590273 1.353927 1.012644 1.914073 -0.775252 -0.222463
adults 0.652677 0.217987 1.000492 0.025473 -0.025199 -0.853075 -0.757525 -0.942893 0.705854 -0.771085 1.835227 0.464672 -0.225018 1.266644 0.619613 -0.165370 0.037717 -0.125773 -0.867997 -0.811843 0.823251 -0.207308 -0.916859 0.903297 -0.828027 0.637091 -0.302589 0.777761 0.592543 -0.062007
advantage 0.219460 -0.749947 -0.323211 0.573364 1.352866 -0.897580 0.129108 1.672945 -1.023555 -0.178226 1.045433 -0.545721 0.416950 -0.455920 -0.056430 -0.593211 0.238826 -0.551722 0.654663 -0.614167 0.363387 0.683916 -0.106272 -0.427750 -0.599050 0.404324 -0.339822 1.648588 -0.416414 1.357423
advertising -0.252615 -0.052913 1.178927 -1.002821 0.406748 -0.209723 0.459050 0.883036 -0.822882 -0.769906 -1.215809 0.335258 0.395839 -1.658686 0.032653 0.095058 1.354387 0.928470 0.357937 -0.270578 -0.346083 0.611391 -0.841458 0.467527 0.454435 -0.460880 0.973240 0.649681 0.213640 -0.349584
affordable 0.682428 0.925388 0.286199 -0.386573 1.119955 0.389257 0.649948 0.009870 0.018485 -1.599812 1.879804 0.153007 1.109317 0.170441 0.267113 -1.034118 0.414560 0.042433 -0.727676 0.276738 -0.011090 0.833323 0.509728 0.297754 -0.434270 -0.362228 -1.478492 1.240218 -0.857366 0.838058
after -0.762463 1.710154 -0.059415 0.305984 0.658576 -0.217646 -0.975988 -0.107272 0.045387 0.289432 0.066694 -0.642204 0.780285 -0.656568 0.152294 -0.205693 1.168971 -0.125791 -0.781698 0.433041 1.468802 0.395179 0.355545 0.368502 0.298260 -0.538695 -0.031146 -0.628615 -0.592359 0.409053
again 0.932009 -1.360092 -1.667421 1.269403 1.397663 -0.009806 0.271153 0.329518 -0.695162 0.598777 -0.045397 0.706671 1.106375 0.571677 0.344089 0.744930 0.827819 -0.547956 0.054980 -0.017045 1.013146 0.182985 -0.220666 -2.138936 -0.200919 -0.956569 0.837627 -0.001414 -0.174488 -1.693966
ages -1.712169 0.256149 0.981807 0.298804 0.180638 -0.800129 0.105369 -0.222750 -1.209370 0.906143 0.968173 0.203908 0.952094 0.386804 -0.440596 -1.954565 0.309188 0.071590 -1.020900 0.266612 -0.138663 1.027837 -0.060368 -1.482029 -0.074796 0.423254 -0.908068 -0.046881 0.756971 -0.324332
aggravating 1.291557 -0.712654 -0.329138 -0.620588 0.919962 -0.875255 0.377889 -0.997065 0.339461 -0.367917 -0.734523 0.892586 0.530258 0.407005 -1.003852 -0.933115 0.389831 0.700292 -0.152381 -0.377888 1.254533 0.255839 -0.681295 -0.753097 -0.181822 -1.010841 1.319821 -0.216485 -0.222964 -1.268772
ago -0.530024 -0.198252 0.159650 -0.885447 0.505133 -0.576727 -0.829051 1.098877 0.606367 -0.530132 0.698788 1.281572 0.840254 0.279969 -0.124901 -1.891915 1.828517 0.290132 -1.012334 0.501666 0.042222 0.319363 0.412807 -0.439873 -0.048653 -1.177152 0.282380 0.478907 -0.523873 -0.016214
alexa 2.360537 -0.403919 -0.272952 0.669585 0.377452 -1.218767 0.355725 0.259628 -1.117840 -0.509290 0.546179 1.111281 0.896068 -0.783823 0.335854 1.214440 -0.989139 -0.832335 -0.543463 0.405081 0.489697 0.082870 1.431569 -1.615515 -0.317986 -1.455833 0.730400 -0.111557 0.542297 0.444797
all 0.069531 -0.259641 0.979758 0.466542 0.772490 -0.432762 0.587760 0.351775 0.087737 1.054998 0.080178 0.701984 0.108164 0.955212 0.035373 -0.631844 -0.031053 -0.465948 -0.387301 -0.060413 -0.118286 0.804758 0.280921 0.051045 -0.521370 -0.379025 -0.266191 1.193973 0.762324 -0.346328
allow 0.271838 -0.970065 -0.043533 -0.814674 1.124788 0.018220 -0.366458 -0.488271 -0.236240 0.913337 -0.795453 -0.424439 0.827157 -0.515323 -1.062165 -1.039684 0.579080 0.950509 -0.144643 1.019030 1.209484 0.467340 -1.414707 -1.361047 -0.089364 -0.895654 -0.968696 0.285899 0.779809 0.191320
allowed -1.169952 0.173467 1.095133 0.621043 0.399167 1.376567 -0.614343 -0.626638 -0.034140 -0.434962 0.927131 -0.184346 0.663918 1.181166 0.214957 0.196901 -0.105816 -1.342239 -0.438082 0.253728 0.545371 0.559249 -1.099932 -0.189224 -0.758210 0.171082 -1.102660 -0.131425 2.035038 0.421182
almost 0.358738 0.397702 0.182352 0.555384 0.189808 0.073444 -0.397261 0.392693 -0.516082 -0.392651 0.107067 1.449419 0.186766 0.170464 0.533780 -1.960660 1.238599 0.732740 -1.641929 -0.598342 0.294730 -0.759951 0.462912 0.554242 0.630031 -0.188479 0.213097 -0.466940 -0.013354 -0.180139
alone 0.336881 0.201477 -0.038249 0.166279 1.527522 -0.853053 0.043684 0.376398 -0.987338 -0.104804 -0.133660 1.886974 1.577878 0.122971 -0.186413 0.784623 0.647497 0.676821 0.580135 0.523772 1.269974 -0.553529 -0.075071 -0.458847 -0.489127 -0.346156 -0.164283 0.821499 -1.291336 0.433011
already -0.437468 1.733175 -0.522365 -0.822931 0.275179 -0.454233 -0.944459 -0.460861 0.203667 0.673571 1.161381 -0.010631 1.036067 -0.713407 -0.066803 -0.014234 -0.464627 -0.613731 0.077350 -0.056456 1.115976 1.352271 -0.339630 -0.324976 1.316546 -0.379014 1.418881 0.298335 0.313406 -0.443338
also 0.075309 -0.545823 0.959360 0.896612 -0.633699 0.612189 -0.789187 -0.310792 -0.363332 0.489994 -0.589883 -0.634831 0.807398 -0.428193 1.204978 0.014796 1.819427 -1.349061 0.043035 0.475463 1.484283 1.012495 -0.031889 -0.049973 0.061408 -1.304938 0.965282 0.578978 1.051622 -2.257829
always -0.559119 -0.545091 0.130031 -1.297520 0.755745 -0.500909 0.411440 -0.165640 0.421727 -0.742501 1.413123 0.351299 0.303798 0.660299 -0.814290 -1.997217 1.371398 0.015929 -0.723777 0.237044 0.141662 0.724612 -0.114013 -0.160343 0.038177 -0.478598 1.377146 -0.156543 -0.960193 -0.834147
am 0.605407 0.525071 -0.767470 -0.326250 1.384189 0.816979 0.563324 2.065657 -0.938937 0.604348 1.321907 -0.736100 -0.077045 0.377247 -0.157309 -1.349257 0.481075 0.702873 -0.662830 0.041254 0.689523 0.641867 -0.664285 -1.602747 -0.231487 -0.486436 1.191970 0.425885 0.044734 -0.216308
amazon 0.435041 0.116042 0.423473 -0.319888 0.273945 -0.403297 0.442942 0.530768 -0.365730 0.280183 0.863909 0.069666 1.532649 0.637399 0.345258 -0.661105 0.070958 -0.638262 0.648978 0.129367 -0.109903 -0.565996 -0.928244 0.285534 0.107674 0.452323 0.391676 0.374117 -0.204999 -0.723110
amount -0.325778 0.245799 0.484139 -0.147866 0.721988 1.011089 -0.529710 0.482440 -0.629279 -0.668465 0.380268 -0.304248 0.753517 0.958515 -1.468676 -0.706983 -0.626032 -0.933012 0.288883 0.356134 0.138274 3.059837 -0.071508 -0.031631 -0.417232 0.435498 -0.318867 0.312152 0.784402 -0.569065
an -0.313021 0.070637 -0.054873 -0.725880 0.495170 0.223795 0.088955 -0.109599 -0.118953 -0.419503 0.457628 0.228215 0.836949 0.271687 0.148787 0.130472 -0.135485 -0.665258 -0.386211 -0.002009 0.823933 0.260359 0.324393 0.156523 -0.044719 -0.491302 -0.146567 0.065290 -0.034179 -0.583133
and 0.057635 0.165483 0.595665 0.604835 0.101838 -0.368336 0.022097 -0.423548 0.134000 0.257668 -0.037358 0.350449 0.236032 -0.033921 -0.465708 -0.273820 0.863488 -0.382905 -0.328058 -0.160466 -0.312947 0.492459 -0.199991 -0.114367 -0.150666 -0.174496 0.232655 0.302899 0.048500 -0.728637
android -0.114688 -0.181014 0.803803 -0.805058 1.791289 0.329224 -0.060946 -0.452602 0.132839 -1.088083 -1.338794 1.051782 0.562622 -0.103022 0.663151 -0.395344 -0.136964 -0.615180 -0.700707 -0.109484 0.840938 -0.767074 0.439813 0.721375 -0.628985 -0.064279 0.583462 0.277895 0.772160 0.383382
another 1.141394 0.587280 0.180331 -0.856603 -0.532632 -0.379011 0.062733 -1.067824 0.273120 -0.334806 0.187345 1.520193 -0.018389 0.378125 -1.261365 -1.113290 0.363925 -0.270714 -0.593809 -0.550017 1.548342 1.907333 -0.529421 0.169154 1.074714 -1.539282 -0.439910 0.603156 -0.897559 -1.745868
answer 0.554947 1.319990 0.949232 0.703712 0.338302 0.113044 0.522613 0.393829 -1.025400 1.263483 0.267269 1.267895 0.404336 -0.613482 0.929129 0.311302 -0.675660 -0.351652 -0.730395 -0.672938 0.663347 0.803821 0.110465 -0.119719 0.095777 -0.523526 1.990081 -0.584747 0.315084 -0.216515
answering 0.390285 1.216910 0.671576 -0.191262 0.727783 0.076693 0.071656 -0.612225 0.413512 1.348512 -0.350146 0.326856 1.402266 -1.979380 -0.732410 -0.905356 -0.739326 -0.227516 -0.511447 -0.108109 1.138157 0.164763 -0.457430 -0.025768 0.891246 0.727046 -0.238438 0.037191 0.347144 0.299735
answers 1.037511 -0.596968 0.983275 1.290124 0.256199 -1.260032 0.148501 0.254346 -0.819192 -1.141512 0.711917 0.268482 0.887947 -0.000806 -0.057988 -0.136175 0.193700 -0.397463 -0.358545 -1.549385 -0.812531 0.457444 -1.549750 -0.209382 -1.871939 -1.469790 -0.623921 0.292667 0.219789 -0.118110
any -0.727178 1.485443 0.577185 1.505418 1.414440 -0.625349 0.573957 0.005225 0.243335 -1.927717 2.423271 -1.156146 0.023129 -0.049932 1.100925 -1.708778 0.360607 -0.628246 -0.042312 0.750160 0.470841 -0.150823 -0.444814 0.848541 0.355265 -0.635448 -0.142736 -0.139103 -1.684203 -1.121906
anything -0.023038 0.634007 1.562039 -0.059087 0.991869 1.050468 -0.595437 -0.402257 -1.222936 0.677267 -0.464697 0.380411 0.657253 0.805700 0.126999 0.083282 -0.292672 -0.879339 -0.356172 2.574537 0.764995 0.141704 0.705156 -0.765106 0.379169 -0.438217 -0.081283 1.132633 -0.114309 -0.794470
anytime -0.026617 0.653071 0.872913 -0.905190 2.294590 -1.543380 1.171158 -0.766760 -0.415863 0.421845 0.270599 0.687195 0.201053 -0.282854 0.000765 0.621538 -0.731333 -1.041459 -0.859848 0.146294 0.560110 -0.526144 0.398493 -1.002392 0.873856 -0.211043 0.606953 0.745235 -0.817366 -0.694089
anywhere 1.457457 -0.230459 -0.544465 1.178430 0.488786 -0.066494 -0.756589 0.142096 0.404697 1.490491 -0.227826 -0.975649 0.380745 -0.205753 0.258728 -1.268170 -0.040134 -0.563654 0.133381 -0.200262 0.606528 -0.662123 -0.865581 -0.195916 -0.787241 0.546854 1.347057 -0.064988 -0.104325 1.137787
app 1.164604 -0.018655 -0.491677 -0.427051 -0.252115 -0.739646 -0.358392 0.042941 0.407537 -1.253073 0.715858 -0.251653 1.142464 -0.229822 0.498174 0.306065 0.152192 -1.662134 0.996520 0.350065 0.706680 1.844690 0.003997 0.399807 -0.382242 0.636940 0.352675 0.070193 1.702583 -0.502769
appeared 1.391055 0.152822 -0.800667 0.795759 0.309630 0.012115 -0.709107 -0.518635 -0.154438 -0.067149 0.347581 -0.091835 0.637389 0.922324 -0.680509 0.331467 -0.281123 -1.054922 0.340459 0.502060 1.846433 0.353175 0.234584 0.395904 0.108403 1.302253 0.697031 -0.119745 -1.725016 0.037798
appearing 0.156782 -0.595928 0.874581 -0.780066 1.248300 -0.507709 0.052496 0.450615 0.245045 -1.348888 0.535848 0.672734 0.520574 0.887849 -1.799688 1.033020 0.167974 -1.224309 0.675765 -0.744417 0.420723 0.944232 -0.682658 -0.045939 0.212378 0.523625 0.616490 -0.235359 0.124674 -0.178556
appears -0.272258 0.724937 0.094211 1.522278 0.603255 0.902945 -0.539451 -0.014537 -1.280470 0.389788 -0.385372 0.569693 0.164662 0.656305 0.705230 -1.238051 0.700253 -0.669057 -0.137871 0.542212 0.166024 -0.252529 0.772629 -0.090495 -0.396412 -0.827843 0.238198 -1.822469 0.338881 1.390916
apple -0.105918 -0.104158 1.301265 -0.745279 -0.161284 -0.771273 0.057826 0.453023 -0.174702 1.415381 0.520461 1.195928 0.523053 0.055673 1.305295 -0.956995 -0.036834 -0.716330 -1.016395 -0.171897 -0.660769 0.758561 0.739328 0.227187 0.874892 -1.831293 -0.136104 -0.096522 0.535084 -0.173765
appreciation -1.098337 -0.360824 0.407907 -0.269996 -0.328146 -0.695378 -0.256666 0.116253 -0.715570 -2.154402 1.249607 1.104064 0.198599 0.029958 0.137714 -0.262402 0.052780 0.351557 -0.967925 -1.767312 0.423423 0.802907 0.257643 -0.474184 -0.509119 0.368073 -0.556069 0.126550 0.347252 -0.092019
apps -0.547605 0.758842 1.270197 -0.677758 0.263337 -0.170982 0.525394 0.387934 0.397054 0.023891 0.219032 0.151384 -0.281467 0.358493 0.112051 -1.150618 0.107128 -0.230730 1.356162 0.407100 0.765495 1.699470 -1.113533 -0.114484 -0.733895 -0.072572 1.700146 0.806581 0.717471 0.152698
are -0.353500 -0.589584 0.490238 0.336910 0.961180 -0.203333 0.830980 0.274411 -0.335383 0.827632 0.707909 0.905657 0.413622 0.714474 0.086345 -0.370804 -0.095470 -0.865940 -0.138544 -0.553104 0.217482 0.395397 -0.099001 0.218191 -0.541655 0.074724 -1.141266 0.229041 0.692110 0.232335
around -0.628416 -0.631002 0.755914 0.102207 1.856002 0.764503 -0.483067 -0.098367 -0.339397 -0.276758 -0.278479 1.111432 -0.092018 0.008507 0.973434 -0.900402 1.144019 -0.095998 -0.735943 0.331371 1.269730 -0.551585 0.397248 -0.852334 -0.099246 -0.546095 0.863797 -1.022886 1.251424 1.156562
as -0.583383 -0.281537 -0.140696 0.294702 0.176377 0.034205 -0.382864 1.008014 0.135767 -0.975182 1.071652 0.937729 1.886996 0.252487 -0.348618 -0.622992 0.367946 -0.509587 0.046715 -0.326186 0.277260 -0.556025 0.056859 0.420591 -0.687726 0.134446 -0.090033 0.114247 0.217752 0.537502
ask 0.914898 -0.653722 -0.047815 -0.575177 1.536128 0.112211 -0.700432 -0.632196 -1.068762 0.076414 -0.870309 0.567691 1.028799 0.465948 -0.232348 0.468236 -1.452368 -1.197793 -0.798475 0.327393 1.261310 -0.316978 -0.009336 -0.610671 -0.219831 -0.779049 -0.522280 0.319901 1.339296 -0.472198
asked 0.384664 -0.377415 -0.583916 -0.010685 -1.117479 -1.633470 0.167607 0.560803 -0.499274 -0.678087 0.334128 1.508299 0.090252 -0.155645 0.453953 -0.098166 0.510178 0.348355 0.192382 -1.395737 -0.365359 0.403804 -0.629352 -0.059943 -0.707507 -0.610351 -0.251716 -0.469996 0.638655 -1.132730
assumed 0.622620 0.242724 0.033593 -0.959557 2.265423 1.293289 0.441666 -0.297766 0.194797 1.653121 0.137909 0.143649 -0.214537 0.429205 0.025806 -0.592066 1.568420 -0.247013 -0.447905 -0.095568 1.133137 0.480146 -0.342073 0.216010 0.064452 -0.576432 0.041684 -0.951871 -0.609239 0.182381
asus 0.282757 0.425082 -0.003157 -1.584956 0.820903 -0.391670 -0.162999 -0.585244 -0.483028 -1.016378 0.099892 1.543022 0.989066 0.301784 1.550313 0.209529 0.923927 0.959642 -1.180330 0.788329 -0.513865 0.458010 0.406396 -0.453115 0.669121 -1.537749 0.758752 0.834970 0.765984 -0.410882
at -0.064032 0.154288 0.486111 -0.615118 0.968166 0.237942 -0.106101 0.716812 0.143622 1.191927 0.174655 1.099857 0.693533 1.312628 -0.101570 -0.542311 -0.082729 -0.226324 0.344127 -0.455972 -0.017932 0.825703 0.330881 0.426901 -0.427048 -0.664637 -1.035932 0.457901 0.325183 0.411224
audible 0.317260 0.590555 2.557758 -0.361708 0.809058 -0.967391 0.370634 0.291413 -0.570560 -0.457504 0.649557 0.998326 0.303452 -0.041202 1.160680 -0.362034 0.016219 -0.611802 -0.989081 0.916165 -0.663364 0.432282 -0.604343 0.456197 -0.369751 -0.039788 0.212441 0.188646 1.053816 -0.225152
august -0.318115 1.155608 -0.033213 -0.395039 1.668340 -0.569237 -1.191690 -0.734537 0.397360 0.160342 0.772241 0.513679 1.220810 -0.608271 -0.328924 -0.344900 0.447779 0.066005 -0.712931 0.675896 0.297021 0.465428 0.738798 0.148654 1.391111 0.348886 0.167477 0.190266 0.808010 -0.673049
automatically 1.062598 1.541746 -0.083195 -0.853362 0.989537 -0.196611 -0.256118 0.514301 0.303209 0.127981 0.923622 -0.087008 0.680216 -1.169283 -0.203067 -0.868444 0.102942 -0.803833 0.076416 -1.394518 0.371262 -0.280537 0.449302 1.658056 1.151494 -0.016419 0.048982 -0.288892 -0.135623 0.805730
available 0.465022 1.336970 0.711572 1.150305 1.354895 0.061279 0.969121 0.234263 -1.779470 0.140259 -0.551528 0.250417 1.214850 0.991288 -0.058273 0.491628 -0.647588 -0.887944 2.001853 0.100854 1.344286 -0.355238 0.056373 -0.328113 0.350258 -0.026753 -0.949199 0.352537 0.154024 -0.034801
average -0.086059 -0.459819 1.141309 -0.168294 0.062033 -1.026214 0.244889 0.490791 -1.150369 -1.696727 0.853857 1.648178 1.357554 -0.761213 -1.016278 0.492866 -0.153742 -0.633671 -0.482882 -0.677236 0.854051 0.359592 0.436134 -0.095345 0.506280 -0.884230 -0.053551 0.896061 -0.462432 0.056535
avid 0.677014 0.418849 1.032196 0.186683 1.090484 -0.663267 1.554196 -0.160551 -0.595519 0.689761 1.211719 0.836549 0.521044 0.150850 0.625548 -0.795181 0.319610 -0.127815 0.215581 -0.186771 0.804527 0.765115 -0.183811 1.432831 0.052159 0.983190 -0.382763 0.275243 -0.552324 -0.231758
avoid 0.491126 0.859046 1.145316 -0.506060 0.538996 0.163770 0.536139 -0.102977 -1.180522 0.561177 -1.203813 0.705124 0.064144 -0.090151 1.389801 0.215459 0.923308 0.023687 -0.494377 -0.057865 0.320231 1.019086 -0.108217 0.391323 -0.130936 -1.601545 -1.199492 1.417459 0.177128 -0.453868
aware -0.393337 -0.761628 0.051099 0.506260 1.564685 -0.692291 0.025427 0.584532 -1.199666 0.532333 1.103628 -0.094033 0.583876 0.481132 -0.006266 0.188890 1.155378 -0.159681 0.397845 -0.213219 0.792083 1.253714 -0.126357 0.687788 0.150439 -0.005491 -1.017662 -0.033980 0.587544 -0.074504
away -0.589140 1.107413 -0.875831 0.122303 1.007718 0.086043 -2.061396 -1.180392 0.007520 1.295584 -0.372259 0.442544 0.702256 0.043099 -0.458608 -0.426399 1.417976 -0.038427 -0.553038 0.247955 0.266209 0.842158 0.360423 -0.614877 0.219974 -0.667983 -0.019870 0.763145 0.560672 0.460556
awesome 0.762269 -0.163914 -0.357213 0.364196 0.221420 -1.119489 0.239996 -0.200020 -0.225073 -0.291000 0.317038 0.423124 0.928684 1.134257 0.215928 0.297296 1.576135 -0.997597 -0.419413 0.145708 0.206584 0.862704 0.124546 0.092895 -0.676714 1.040872 -0.349727 0.991657 0.349108 -0.288347
awhile -0.191927 0.826815 1.050171 0.892738 -0.019672 0.484802 0.064319 -0.220110 0.402374 0.529343 -0.494980 1.181526 -0.208208 0.173150 -1.237466 -0.538484 0.481306 -0.487276 -0.588260 -1.992619 0.649815 1.809875 0.564690 0.342097 0.420095 -0.578956 0.617142 -1.039537 0.859115 -0.569998
back -0.252514 0.433081 -0.159041 -0.209251 0.964434 -0.082552 -1.089617 0.557254 -0.271388 0.768225 -0.223995 0.737276 1.028574 -0.116757 -0.946353 -0.590640 1.086424 -0.179575 0.620602 -1.033984 -0.374240 0.898190 -0.109665 0.326399 0.085150 -0.136743 0.789769 -0.402192 -0.622909 0.309681
background 0.626193 0.555336 -0.022034 1.359638 -0.053980 -1.178237 0.302074 0.266109 -0.144949 -0.261699 0.242278 0.375631 0.870833 -0.926430 0.436815 -1.132601 0.114510 -1.994101 0.202709 -1.758727 -0.909635 1.032432 -0.107114 0.323702 0.280707 -0.190723 0.703750 -0.658363 0.486688 -0.704810
backlights 0.796726 0.567193 -0.452072 0.516411 1.267835 0.183543 -0.698052 0.249921 -0.448445 0.454562 -1.086253 0.025464 1.196923 0.895149 -0.966961 -0.719265 1.599834 0.221363 0.666293 0.439976 0.946130 0.180414 0.579591 0.353148 0.802537 -1.105606 1.138254 -0.187360 -0.468378 -0.248742
backlit 0.018493 -1.636326 0.005519 -0.318558 1.465429 0.500071 -0.315528 0.162734 0.242347 0.361517 0.429455 0.136101 1.288636 1.460613 0.505289 -1.022610 1.664901 -0.561463 -0.233552 0.278080 0.878442 -0.057528 1.290419 0.392939 -0.470670 -0.844689 -0.070173 -1.507595 -1.026893 0.125402
backup 0.175844 -0.154695 1.540828 0.299670 0.214271 -1.093253 -1.438934 0.528098 -0.036878 -1.528631 -0.787889 2.149964 2.016194 0.527157 -0.841362 -0.885989 0.729636 1.253832 -0.870446 -0.345866 -0.048084 0.160344 -0.861126 0.246712 -0.399270 1.232622 -0.541329 -0.335161 1.305640 0.208168
bad 0.625357 0.425973 0.124988 -0.408274 -0.502202 0.367097 0.691905 -0.558772 -1.150668 -0.936072 0.281738 0.617991 1.927844 0.785249 -0.415582 0.094375 0.462367 -0.867447 1.060813 -0.152719 0.481756 0.009145 -0.598442 0.537564 0.415439 -0.263563 0.923976 -0.385805 0.336573 -0.447074
bag 0.360876 0.390152 1.096700 0.231113 0.137497 0.125361 1.458156 -0.247646 -1.137041 0.582933 1.262825 -0.006776 0.966626 -0.363238 0.205087 -1.360099 -0.889466 -0.341610 -0.633282 0.190024 0.378902 0.322588 1.285318 0.228687 1.184816 -0.587687 1.253425 -0.228775 0.809146 -1.358777
based 1.308461 0.447613 0.205531 -1.190638 1.155435 -0.230401 0.357556 0.513130 -1.333776 -0.252941 0.195753 1.759474 0.590450 -0.335264 0.876142 0.299934 -0.717800 0.363656 -0.691659 -1.090354 0.640160 0.529017 0.089435 0.024490 -0.206652 -1.582152 -0.715688 0.722792 -1.227012 0.059757
basic 1.070442 -0.390136 1.373197 1.169955 1.084365 -0.129600 -0.175225 -0.178279 0.078495 -0.550994 1.136608 0.650723 -0.030146 0.476724 0.201103 -0.303696 1.053511 1.034462 -0.231870 0.513375 0.701989 0.333447 -0.390756 0.045053 -0.053162 0.448222 1.483116 0.166371 1.021492 -1.072014
basically 0.511980 1.040483 -0.013023 -0.558669 -0.143018 0.821115 -0.402584 -1.103994 -0.584189 0.295681 0.558420 0.502524 0.995878 -0.879768 -0.087369 -1.535202 -0.953704 -0.198047 -0.822015 -0.123139 0.613449 1.057357 -0.741711 -0.413417 -0.931518 0.542449 -0.541592 0.327871 -0.278185 -0.982375
basis 0.287343 0.650637 -0.422732 0.444388 -0.950954 -1.293064 1.337813 1.216782 -0.155438 -0.725950 -0.336233 1.714354 0.618301 0.151016 0.314649 -1.627499 0.689302 -0.249405 -0.536733 0.013009 -0.904727 0.398815 -0.971830 0.181627 -0.742851 0.067473 0.639244 0.390987 -0.724890 -0.746307
bathroom 1.062562 0.548767 0.935801 -0.887655 0.914530 -1.329246 0.057023 0.254461 -1.002162 0.462213 1.077799 -0.051578 0.134931 0.452207 -1.857383 -0.593089 -1.501298 -1.122173 -0.146878 0.314220 0.032627 -0.915276 0.634881 -0.671049 -0.370981 0.126994 -0.071679 0.473515 0.498306 0.026021
battery 0.073602 -0.068571 0.515680 0.033617 1.197267 -1.247478 2.124173 0.431961 -1.178631 -0.933290 -0.173924 0.986715 0.520205 -0.785142 -0.715936 -1.470572 0.414608 0.078712 0.535565 -0.553566 0.225707 0.848372 -0.080780 0.290076 -0.608821 -0.303931 0.303343 -0.185436 -0.303783 -1.063203
bc 0.392979 -0.460923 0.436197 0.237489 0.176402 1.538120 0.693065 0.002742 -0.311479 0.399747 0.928670 0.003947 0.553923 0.410908 0.660499 -0.880861 0.123654 -0.524662 0.104196 0.223617 2.053019 0.713057 -0.813154 0.554356 -0.757221 -0.369408 -0.484508 -0.046363 0.915862 0.534975
be 0.105865 0.031192 -0.363405 -0.673169 1.102937 0.441067 -0.185726 -0.279530 -0.542877 -0.274012 -0.590120 0.323248 1.433061 -0.074113 -0.069697 0.176202 0.116261 -0.423673 -0.280974 -0.654506 0.678010 0.030471 0.506353 -1.058261 -0.389627 0.147809 -0.250376 -0.610289 -0.721451 -0.227596
beat -0.696311 -1.089346 0.212564 -0.687894 1.619547 -0.708637 -0.242489 -0.947191 -0.584239 -0.961720 0.412252 1.431086 1.086572 0.200619 0.496187 0.773863 0.877824 -1.857917 0.256815 -0.566994 0.628302 0.406141 -0.905595 1.703397 0.852336 0.302005 -0.780800 0.203625 0.629885 0.825603
beats -0.704412 0.164434 0.590980 -1.188821 0.540720 0.029395 0.090330 -0.222791 -0.881752 0.753751 0.191326 2.254026 0.004782 -0.315823 -0.841140 -1.657065 -0.294240 0.939765 -1.538414 -0.380978 0.025639 0.424465 -0.057660 -0.475656 -0.405886 -0.211597 -0.065560 1.229790 0.291353 0.044853
beautiful 0.932663 0.209823 0.726554 -0.184265 0.350127 -0.085140 -0.475592 0.061047 -0.476702 0.779601 -0.953443 -0.539369 1.408685 1.294120 -0.212791 0.527186 -0.729639 -0.232743 0.184232 0.536558 0.728040 0.295744 -0.751074 0.025151 -0.480747 0.004592 0.719521 0.918281 0.571564 -0.091732
because -1.564205 -0.453127 0.107922 0.089919 1.213031 -0.606290 -0.098330 0.568465 -0.460369 -0.430686 0.534036 -0.762161 1.252868 -0.303999 0.574535 -0.607611 0.889524 -1.290316 -1.257260 0.581605 1.285497 -0.325227 0.685843 -0.285687 0.515967 -0.317577 -1.162986 -0.641799 0.408794 -1.002963
bedtime 0.695531 0.938063 0.635191 -0.581016 0.622388 -1.075523 -1.668626 0.557026 0.359236 0.899201 1.091168 -0.234182 -0.292290 1.228674 -0.152338 0.173787 -0.258588 -1.046460 -0.944362 -0.934330 -0.711392 -0.422627 -0.848785 -0.487651 -0.332121 -0.503695 0.438741 0.484249 -0.291198 0.303094
been -0.381039 -0.233560 -0.453964 0.918973 1.195295 0.328409 -0.371033 0.068061 -0.794746 -0.388656 0.312459 0.649371 0.894799 0.080236 -0.418911 -0.144879 0.907755 -0.909781 -1.213299 0.024147 0.447170 -0.861248 0.450245 -1.069482 0.477324 -0.257254 0.074419 -0.176765 0.424541 0.514651
before -0.626993 0.555846 -0.560683 0.275130 0.158060 -0.049414 0.538771 -0.179420 0.278578 -0.931093 0.673188 0.566445 0.187977 0.432982 -0.532039 -0.083449 0.799908 -1.650767 -0.525249 -0.339401 1.055248 0.600025 0.673144 -0.248194 -1.718037 0.479734 -0.167938 0.134049 0.846115 0.816396
beginning 0.933914 0.403379 -1.069598 -0.798643 1.035408 -0.058164 -0.044647 -0.521909 -1.008015 -0.005554 -0.547078 -0.361868 1.437577 0.644557 -0.200158 0.497165 0.880529 -0.246757 -0.255720 -0.034562 1.015753 1.684352 0.275091 -0.054334 0.657414 -0.016774 -0.248512 0.915247 -1.230032 0.566681
behind 0.935693 -0.109078 1.325942 1.174427 1.488482 -0.688759 0.822904 -0.171893 -1.193943 -0.458543 0.464233 0.971017 0.594658 -0.027756 -0.117248 -0.179724 0.795898 1.317556 0.429864 -0.581518 0.427270 0.962097 -0.295172 -0.212933 0.073178 0.181978 -0.879203 0.812120 -0.196685 -0.757863
being -0.051895 0.085050 1.539672 -0.073197 -0.074959 0.254203 -2.232693 -1.160967 0.101672 0.318813 0.924890 1.128155 2.178835 0.070187 0.808589 -0.548038 -0.837751 -0.927309 0.269782 0.811906 0.438144 0.394224 -0.151018 -1.545392 -0.892005 0.237413 0.893723 1.603613 -0.414132 -0.381040
benefits -0.732609 -0.208640 -0.101478 0.513300 0.725367 -0.098689 1.075892 0.565225 -0.834055 0.514475 0.359350 -0.040020 1.219453 0.228162 0.679400 -1.083138 0.218849 0.080278 0.948314 -0.660535 1.463027 -0.040338 -0.542138 -0.735132 0.396246 0.137286 -0.524639 1.775126 -0.363486 1.462951
bent -0.069425 0.936743 -0.146006 1.681879 0.120457 0.314392 -1.959506 -0.081737 -0.018568 0.977975 -0.099773 0.407047 0.049130 0.265692 -0.318995 -0.774821 0.720227 -0.762773 0.172639 -0.689506 0.952788 1.090512 0.208403 1.313126 -0.379648 0.271452 1.126781 -0.676416 -0.763518 -0.466370
best 0.912397 -0.259073 -0.718217 0.233228 1.727739 -0.010001 0.021962 -0.071447 -0.234976 -0.231020 0.738469 -0.193342 0.136314 0.517023 0.155089 0.036201 0.272274 -0.511297 -0.374912 -0.239765 0.045374 0.913250 -1.120239 -1.410980 0.230892 0.666189 -0.121960 1.042384 0.581404 -0.818106
bestbuy 1.020982 -0.111046 -1.192351 -1.197418 1.443969 -0.296800 0.075876 -0.899225 -0.185721 0.427940 -0.234633 0.587763 1.271449 1.139831 0.026055 0.229491 0.499075 0.547024 0.058449 0.115810 1.190087 1.482687 0.131674 -0.649791 -0.788272 -0.550490 -0.268124 -0.105487 -1.076514 -0.653272
better -0.041152 -0.714748 -0.164288 -0.585925 0.710669 -0.960884 0.880283 -0.862864 0.393090 -0.839294 1.187200 -0.126296 1.250724 0.826481 0.201208 -0.935436 1.106756 -0.398176 -0.983178 1.150068 0.730135 -0.372677 -0.853699 0.643328 0.224359 -0.046226 0.017543 -0.094176 0.251559 -0.416359
beyond 0.440766 0.742541 1.443739 0.940194 -0.442607 0.553682 -1.596336 0.433258 0.320997 0.397776 0.819734 1.863634 0.820228 1.105094 -0.561919 -1.081126 0.378027 -0.352724 -0.568197 1.179986 0.971729 -0.568411 0.452009 -0.432412 0.412687 -0.008086 0.069259 0.630679 -0.503546 0.196107
big 0.191140 0.126916 0.968820 -0.839621 0.098270 -0.459199 0.667523 0.300448 -1.330782 -0.703136 -1.411442 0.311772 0.535451 -2.086352 0.463796 0.048618 1.314663 0.295169 0.406789 0.189691 -0.594910 0.984278 -0.747644 0.256536 -0.247203 -0.717665 0.717190 0.434601 -0.178381 -0.011456
bigger 0.519409 -0.168571 0.588161 0.035440 1.243136 0.469568 0.643109 -0.098246 0.561728 -0.798829 -0.228279 0.786763 -0.307737 1.263150 0.548386 -0.854870 2.273389 -0.808700 -0.288443 -0.455563 0.421765 0.627298 -0.056038 0.466865 -0.696012 -0.321509 -0.612113 -0.986788 0.014340 -0.046500
biggest -0.582344 -0.070185 0.275272 0.638701 0.779880 1.515667 0.735980 -0.368043 -0.419269 1.464557 0.390521 -0.704557 0.958543 -0.384750 0.941846 -0.034937 1.648853 -0.634978 0.040753 0.192183 1.638988 0.278792 -0.871200 0.451964 0.682473 -1.875427 0.408768 1.324394 1.696088 0.843114
birthday 0.354575 0.524500 0.975769 -1.904255 0.377482 -0.822308 -0.537540 -0.324793 -0.916836 1.128386 0.493839 0.339157 -0.302500 -0.597423 -0.430005 -0.578100 -0.204080 -0.131067 -0.529776 0.337392 0.783844 0.768205 -0.949695 -0.207719 -0.735417 0.291132 -1.272514 1.333956 0.256193 -0.249748
bit 0.429826 -1.156411 0.775908 -0.729355 0.177557 -0.801588 -0.602156 0.180481 1.123810 -1.317752 -0.579122 0.470830 1.274873 0.807792 0.858747 1.207105 -0.312852 -0.552415 -0.076654 -1.605397 0.260112 -0.095418 -1.012105 -0.155527 -0.473047 -0.432257 1.332695 -1.677351 0.760137 0.034194
black 0.378629 0.263915 -0.093926 -0.367291 0.449314 0.025000 0.260443 0.457129 0.865896 0.754543 0.272394 0.469697 1.366621 -0.578083 -0.136256 -0.482147 -0.247556 0.255733 -0.854849 -1.145500 1.351665 -0.458098 -0.951450 0.973276 0.284337 0.877408 -0.764916 1.602155 -0.232133 1.301462
blank 0.375967 1.795890 -0.889547 0.932593 0.232474 0.904426 -1.503605 -0.310058 -0.915758 0.235597 -0.394986 0.432165 0.115400 0.867470 -0.574511 -0.637509 -0.197947 -0.376549 -0.751336 -0.345926 0.701429 1.125519 0.738984 1.353871 -0.513972 -1.308917 0.928503 -0.067455 -0.986004 0.446188
bloatware -0.485151 -0.807964 0.612325 1.426396 0.174236 -0.568465 0.505986 1.599761 -0.648133 -0.354357 -0.376617 -0.319414 1.105211 0.467281 1.804517 0.691407 0.572241 -0.500447 0.033035 -0.560771 0.809614 0.333450 -0.593935 -0.061333 0.176647 -0.532657 0.421716 -0.176974 1.180836 0.466168
bluetooth 0.680923 0.942592 0.580601 0.537849 -0.147481 0.074867 0.128312 0.343432 -0.595447 -1.461983 -0.001303 1.396833 0.774633 0.854863 1.328003 0.059176 1.428211 0.412631 -0.403193 0.212735 0.143730 -0.329883 -0.001571 0.093258 -1.193331 -0.186842 -0.575630 -0.779404 0.226464 0.000075
book 0.226904 0.916363 0.776135 -0.521293 0.872202 -0.297757 -2.917656 0.349702 -0.407565 -1.202070 0.632015 -0.551544 -0.505741 0.875669 -0.782110 0.208255 -0.790598 -1.059760 1.002126 -0.201044 0.644359 1.152492 -0.116133 -0.402748 -0.588976 -0.899240 -0.924393 1.137271 0.187298 -0.081308
books -0.133521 0.148422 0.872419 0.846281 0.506484 -0.299988 -0.890754 0.369633 0.260381 0.133364 0.838428 1.468001 0.496691 -0.595563 0.055280 0.380838 0.413708 -1.083558 -0.835838 -0.021890 -0.328880 0.653045 -0.247928 -0.264868 -0.690821 -0.027544 0.042664 1.236371 1.355501 -1.275452
boom 1.487853 0.664872 0.847450 -0.253373 0.554779 0.342973 0.783934 -0.103359 0.724957 -0.627320 0.762278 -0.780920 1.069021 0.394286 0.050216 0.429637 -0.217658 0.263935 0.245824 -0.221045 1.045223 -0.434584 -0.214513 0.701509 1.075152 -0.812230 -0.995660 0.976655 1.630746 0.990349
bose 0.058474 -1.039994 1.348477 0.442085 0.476760 -0.870218 0.819175 0.026631 -0.899978 -0.618709 0.481979 0.535314 1.220728 -0.020876 1.762152 -1.183814 0.729684 -0.671900 0.211468 0.128700 0.437621 -1.244299 -0.481875 -1.080725 0.750071 -0.004800 -0.621833 -0.560336 0.620453 0.126488
both 0.329628 -0.491008 0.641832 0.483406 0.390273 -0.920337 -0.241159 -0.820846 -0.314837 0.829792 0.819137 0.686199 0.925544 0.551172 -0.062033 -1.087334 1.330726 0.416920 -0.336585 0.305277 -0.140747 -0.174896 -1.072968 0.654988 0.002464 -0.924005 1.242334 1.027914 -0.145794 -0.652381
bought -0.264535 0.002255 -0.438635 -0.634025 0.803082 -0.391025 0.304311 -0.613177 0.443927 -0.659077 0.288082 0.253493 0.704441 0.184128 -0.632197 -0.797333 0.526503 -0.786037 -1.210034 0.098955 0.370717 0.216966 -0.324645 -0.007983 -0.444785 0.138735 -0.232069 0.409265 0.668831 0.952542
box -0.463909 -0.250666 -0.070922 0.806304 0.712991 0.940474 -0.527678 0.632632 -0.707471 0.272667 1.262734 -0.803432 0.985290 0.554841 0.232081 -0.453847 0.358154 -0.739993 0.416946 0.210411 1.157461 1.244222 0.604484 -0.558977 -0.085793 0.010538 -0.217679 0.829168 0.384176 -0.606515
brand 0.563535 1.128728 0.538290 0.097190 0.621833 0.229409 0.227356 -0.490757 -0.729929 1.297910 -0.499484 2.017635 0.077302 -0.061698 1.497000 -0.562557 0.495321 0.273985 -0.715494 -0.467938 -0.942980 0.321955 -1.155939 -0.494710 0.326662 -1.438591 0.275279 -0.141362 0.220967 -0.541912
break -0.628732 -0.931189 0.417844 1.189374 1.459087 0.350157 0.490114 0.471180 -0.316385 0.188779 1.168055 0.728579 -0.725293 0.094484 0.591244 0.012531 0.628917 -0.492436 -0.685262 -1.744307 1.142768 0.767563 1.658956 -0.429246 -0.491609 0.325040 0.003028 -0.493619 -1.053933 -0.404028
brighter -0.277887 -0.130330 -0.787727 1.437293 0.767582 -0.193041 0.406302 0.683486 -0.181170 0.953623 -0.082375 -0.939838 0.853241 -0.154913 0.949957 -0.113911 0.266963 -0.751851 1.384191 0.891707 2.044851 0.617644 -0.011526 1.202703 -0.243912 0.331275 1.007108 0.279414 -0.026704 -0.080927
brings -0.923312 0.889277 0.356480 0.089948 0.276371 0.351366 -0.340328 -1.118963 -0.474065 -0.301978 -0.400973 1.039264 0.374777 0.103656 -0.783791 -1.252895 0.593689 0.162112 -0.513470 -1.521734 0.206264 1.585492 0.270601 0.330737 -0.463236 0.747163 0.143713 -1.630965 0.220201 -0.200632
brother 0.640299 0.275072 0.378394 -0.292103 -0.005114 0.427661 -0.769571 -0.235549 0.530659 0.842842 -0.367623 -0.523721 1.240715 0.170025 0.132623 -0.312227 1.450261 0.034877 -0.777024 0.157498 1.349270 0.971845 -1.978163 -0.524396 -0.299819 -0.031896 -0.810963 1.446556 0.264461 0.632276
brothers 0.270531 -0.597306 0.632084 -0.665291 0.893548 0.219094 -0.857850 0.298627 0.035974 1.443335 0.167360 0.516153 -0.991519 0.210624 0.861788 -0.958392 0.509979 0.101928 -0.244517 0.192439 1.540751 0.915318 -1.118646 -0.787992 -0.518092 -0.500724 0.039380 0.611233 0.510333 -1.971187
brought 1.288094 -0.379685 -0.170519 -0.424144 0.460027 -0.456381 0.437514 0.294869 0.441635 0.286402 0.680319 0.462918 0.778774 -0.951922 0.242862 -0.525082 0.204838 0.019458 0.184428 -1.483467 1.243772 -0.683494 -0.827965 0.232625 0.627480 -0.184043 -0.587667 1.551332 -0.065644 1.689540
browse 0.575069 -0.299174 1.062299 -1.266901 0.378398 -1.170752 -0.435373 0.538658 -1.226169 0.675054 0.899796 1.066828 0.425701 1.242839 -0.343403 0.319148 -0.116488 -0.037559 -0.139604 0.739149 0.407971 -0.375876 -1.080220 -0.526931 -0.786471 0.338721 -0.265768 1.357941 -0.042793 -1.639315
browser 1.816276 0.486991 1.660178 1.041282 0.574456 -0.748516 -1.140967 1.195606 -1.099654 -0.597449 1.029616 -1.240254 -0.173908 0.633239 0.028882 -0.109240 -0.016122 -0.674646 0.806789 -0.201062 0.237932 -0.103621 -1.116936 0.872770 -0.921237 -0.322852 -0.159578 0.467820 1.102688 -1.016001
bucks 0.652071 0.266240 1.184809 -1.410070 0.496935 0.948051 -0.298431 -0.404542 -0.465237 -0.370747 -0.236936 0.635930 0.181245 1.226277 -0.473218 0.871581 0.523357 -0.826238 -1.434810 -0.699524 1.999489 0.289017 -0.297152 -0.415022 -0.320961 -0.457567 -1.105981 0.242822 -0.944343 0.585718
built 0.783726 0.083543 -0.918015 0.333467 1.031725 0.754241 -0.077464 1.739944 -1.286176 -0.934641 -2.000369 0.087328 0.460427 -0.015844 0.500860 -1.086875 0.838989 -0.279841 0.749461 -0.127772 -0.186951 1.910108 -0.798640 0.037526 -1.565659 -0.567561 -0.258967 -0.206826 0.685193 0.479623
bulky 2.154290 -0.017695 -0.861675 -0.297653 0.281155 -1.007421 -0.061530 -0.257671 0.419213 -0.617354 0.033340 -0.174400 0.307469 0.307759 1.106723 -0.426146 1.123850 -0.884823 -1.144071 -0.989173 0.616826 -0.176730 0.194991 -0.073164 0.397810 -0.104193 -0.187288 -1.035485 1.279398 -0.247568
bunch 1.123134 1.294440 0.572375 1.076029 0.256153 -0.279938 -0.335782 0.284093 -0.147491 0.244103 -0.730057 0.913255 0.553616 -0.588407 0.530036 -0.290591 0.059105 -1.703696 0.147338 -1.237538 -0.080424 -0.067380 -0.085583 -0.093780 1.289356 -0.937524 0.962958 -0.104708 1.069593 -0.066725
busy 0.774635 -0.653646 -0.195443 0.655051 0.677965 1.668323 0.007298 -0.413543 -0.537201 -0.061687 1.300341 0.140121 0.397544 -0.492141 0.606681 0.000656 -0.347141 -0.336452 -0.519772 -1.990125 1.254601 0.208334 -1.082398 -0.056558 -1.116306 0.698380 -0.556265 -0.224826 -0.352540 0.619569
but 0.242924 -0.533173 0.884762 0.047347 0.387125 0.394964 0.013310 0.115407 0.616427 0.163859 0.277705 0.422020 0.353818 0.297626 0.286902 -0.383842 0.501010 -0.143035 -0.342177 0.228702 0.619673 -0.001980 0.282602 0.774763 -0.709432 -0.247188 0.336825 0.037846 0.197658 -0.534808
buy 0.586412 0.401228 0.006967 -0.393130 1.097510 -0.216581 0.579065 0.294749 -0.318940 0.751955 0.348043 -0.370635 0.464382 0.697797 -0.277711 -0.069728 0.308886 0.143848 -0.177498 -0.455761 0.266333 1.124076 -0.693022 -1.643753 -0.033366 -0.025238 -0.266194 0.314597 0.055893 -1.061029
buyer 0.487152 -0.870530 1.044720 0.021058 1.494568 -0.034907 -1.206462 -0.136105 -1.177792 0.339821 -1.010111 0.898598 0.037761 0.408840 0.010178 -0.009215 0.550731 0.557161 -0.168411 -0.340943 0.898180 0.178415 -0.978283 -1.327239 0.447710 -1.077610 0.352409 0.091355 1.107712 0.797515
buying -0.089245 -0.934815 1.370460 0.027398 0.650222 0.430698 1.037120 -0.974576 -0.341690 -0.564303 0.071469 0.516080 0.765778 -0.493765 -0.494258 -0.328448 -0.175428 -0.809650 -1.025103 0.397842 0.539844 0.238986 -0.120072 0.207906 -0.837758 -1.405187 -0.221080 -0.477500 0.426165 -1.570235
by 0.130022 0.075875 0.510853 -0.158449 0.421980 -0.001748 -0.656361 1.604544 0.313261 0.295742 0.749240 -0.037775 1.221476 0.801217 1.216747 -0.551208 0.370831 0.598916 -0.711172 -0.654243 0.521458 -0.270700 -1.031389 -0.746985 -1.682585 -0.232762 -0.265553 2.131571 0.045520 -1.120641
call 0.662791 0.742379 1.828340 -0.690119 1.170555 0.275087 0.580021 0.223194 -0.904185 -0.622261 -0.373734 0.314524 -0.135904 0.250996 -0.430391 0.238636 -1.801771 -1.390755 0.351337 -1.139551 0.014817 -0.209444 -1.413542 0.667522 -0.768570 -0.480149 1.500226 -0.440082 -0.247731 -0.381623
calling -0.094800 0.187343 0.042787 -0.585922 -0.322983 -0.775013 -1.367914 -0.526130 0.174478 1.400841 0.871324 0.370984 -0.269645 -0.107979 -1.348149 -1.882231 1.171190 -0.002683 0.647333 -0.927955 0.563550 0.281649 -0.562389 -0.711789 0.003047 1.596506 -0.180128 -0.182115 0.363653 -0.044268
calls 0.906973 0.602159 0.959471 -0.662168 0.119053 -0.788331 -0.446531 0.391939 -1.525494 0.580306 -0.333185 -0.873167 0.743594 0.774392 -0.208371 -0.026071 -0.677215 -0.669894 -0.332036 0.025526 0.142154 0.070661 -0.112884 -0.382663 -0.739064 -0.329574 0.921529 1.115497 0.673844 0.197999
came -0.261235 0.104041 -0.509574 1.914741 0.421544 0.178907 -1.338312 -0.588008 -0.870612 0.681207 -1.330050 -0.357647 0.546785 0.590476 0.435215 -0.443476 0.658062 -0.310125 -1.153944 -0.552955 0.747730 1.112744 1.162650 0.851932 -0.124964 -1.307414 0.800365 0.199849 -0.429253 -0.433084
camera 0.921502 -1.067977 0.064156 -0.851319 0.938991 -0.280683 -0.825381 0.171376 0.189233 -1.096045 0.840949 -0.212795 0.177374 0.067029 0.572867 -0.080106 1.070646 0.365892 0.719173 -0.038741 1.569269 0.188017 -1.425011 1.297785 -1.206083 -0.714425 0.047933 -0.875040 0.483060 0.569232
cams 0.130113 -0.240982 0.504679 -0.681227 -0.148716 0.406351 -0.227045 0.474489 -1.013029 0.855503 -0.152454 -0.314726 0.542724 0.006963 -1.629809 -1.404510 -0.333583 0.232484 0.567912 0.906056 1.087225 -0.395904 -0.227037 -1.344317 -0.411727 -0.655800 0.115370 1.557096 0.347414 -0.684771
can 0.209904 0.358601 0.516931 -0.009625 0.280573 0.001237 1.124825 -0.282276 -0.615550 0.157215 0.423409 0.476022 0.361405 0.200678 -0.739217 -0.289860 -0.191980 -0.533864 0.161069 -0.110340 0.352847 0.976348 -0.021734 -0.151375 -0.203471 -0.394224 0.597052 -0.323595 -0.018407 -0.459947
can't 0.153373 -0.056203 0.011665 -0.224926 1.147043 -0.331788 0.699528 -0.087504 0.151868 -1.067695 -0.265359 0.137760 -0.085803 0.140362 -0.116250 -0.271404 0.248879 -0.497366 0.100346 -0.360489 0.606093 0.870517 0.066540 0.382070 0.532550 0.606755 0.063618 0.434592 1.048202 0.105710
cannot -1.409141 0.197768 1.536391 -0.999366 0.449666 -0.601492 0.013659 -0.086429 -0.297415 0.784645 -0.519085 -0.055605 0.479971 -0.148832 0.256915 -1.722102 -0.146980 -1.584753 0.355167 -0.164360 0.826232 1.181986 1.430499 1.434053 -0.862460 -0.115641 0.819568 -0.508174 0.925748 1.536231
canâ 0.418897 0.047813 0.763162 1.168591 1.246734 -1.241494 -0.115048 -0.346245 -0.667194 0.684716 1.159373 1.491226 1.040279 -0.617379 -0.421900 -0.859544 -1.248453 -0.521970 -0.438052 -0.065954 0.445420 -0.035949 0.278462 0.636425 1.214248 0.543549 0.398450 0.002786 -1.030345 0.842910
capability 0.073807 0.126302 0.446947 1.364315 0.206793 -0.286575 -0.462754 0.774972 0.525265 -0.326712 -0.726594 1.627604 1.047486 0.668860 -0.052450 -0.347570 0.714446 -0.215956 0.239963 0.762150 1.019396 -0.092602 0.331339 -0.512143 -0.263277 0.174812 1.948385 0.053087 -0.096653 0.816480
car 0.753672 0.762585 1.156168 0.684052 -0.235528 0.700105 0.608061 -0.438146 0.832162 -0.502571 -0.436759 -0.044365 1.776248 -0.869642 0.286563 -0.653866 0.115012 -0.761108 0.577792 -0.751752 0.550890 0.456859 -1.571759 -0.069534 -1.175362 -0.165578 -0.650536 1.591165 0.307711 -1.192774
card 0.835615 -1.715549 1.211263 -0.218076 -0.225796 0.152144 -1.332537 -0.459261 0.543967 -0.397800 1.192288 -0.262312 1.339652 0.740632 -0.510902 -0.097249 1.713270 -1.331731 0.245573 1.224199 0.832940 0.618926 0.067963 -0.644851 -0.242236 0.615925 2.058553 -0.241005 1.444084 -1.120031
case 1.233329 0.687215 -0.847064 -0.301790 0.684954 0.718607 0.079942 0.354577 -0.966209 -0.052817 -0.242834 1.343782 -0.213720 0.040636 1.012422 -0.774531 0.133202 -0.200456 -0.738561 -0.910379 1.669281 -1.468552 0.486557 -0.083483 0.062953 1.540790 1.104117 0.782985 0.782727 0.215122
catch -0.173791 0.362793 0.911801 0.368129 0.757378 0.005837 0.060788 0.300004 -0.471026 -0.486909 0.830667 0.000616 0.168114 -0.300080 -0.046702 -1.305557 0.491699 0.211639 -0.842475 0.698032 0.403085 0.308933 0.137160 0.106013 -0.782258 0.282436 0.244956 0.608952 0.750753 -2.080451
cause 0.710311 -0.601181 -1.280288 1.223454 2.083065 -0.785283 1.025384 -0.439890 -0.428583 -1.665306 0.452018 0.250604 1.398268 0.292278 -0.794449 -0.482358 0.341155 1.064105 -0.283740 0.732553 0.988108 1.062855 0.696180 -0.430999 0.471341 -0.333025 -1.061127 0.544056 -0.095747 -1.266715
cell -0.123777 1.134184 -0.977741 0.085516 1.457622 -1.088582 -1.206501 1.403216 -1.589715 0.418684 -0.412672 0.875264 1.356735 -0.175688 0.147117 -0.624890 2.268558 0.739951 0.509152 0.495886 0.481794 -0.189131 -0.008027 0.322555 0.536770 1.333315 0.653842 0.117983 0.942080 0.288809
certain 0.382758 -0.637968 0.702408 0.259520 1.246225 0.239848 -1.534635 -0.427565 0.838936 -0.913659 0.721263 1.673212 -0.681894 -0.700078 0.081519 -0.145084 1.162915 -0.533509 -0.515160 -0.279554 0.817976 -0.595093 -0.714029 0.462788 -1.314501 1.159759 0.591613 0.087006 -0.418657 -0.614637
certainly 0.338987 -0.007127 0.730140 -0.324452 0.862947 0.349403 0.871629 0.506592 -0.065457 -0.689418 -0.478937 0.359492 0.981210 -0.378047 0.416676 -1.163163 0.544616 -0.294988 0.673725 -0.090951 -0.189687 0.059502 0.069073 1.141764 0.471096 -0.508145 -0.043535 -0.905878 0.041354 0.127431
chance 0.940390 0.856094 0.070985 -0.752336 0.017464 -0.407337 -0.925391 0.214375 -0.093745 0.810496 0.050459 0.766848 -0.214701 0.525200 0.105605 -1.376128 1.066337 -1.450236 -0.836143 -1.244947 0.280006 0.118898 0.144563 0.517074 -0.540003 -0.958984 -0.497198 0.456131 -0.099347 0.833333
change -0.167792 -0.615774 1.019421 -0.757887 0.172251 0.791523 -0.690687 0.451293 0.120407 0.510842 -1.049206 0.093111 -0.192044 -0.053631 0.006885 -0.825616 -0.361332 -1.269275 -0.907788 -1.691344 1.334870 1.265970 -0.456917 1.014469 -0.149068 1.784210 0.480071 -1.479936 0.147898 0.025417
charge -0.922590 2.226583 0.354084 0.257820 0.329341 -0.119641 -0.273720 0.375088 0.749769 -0.028504 -0.489550 -0.175830 0.334448 -0.202585 0.167904 -0.745440 0.346558 -0.529630 0.789303 -0.504167 1.179197 1.348423 -0.863296 -1.058462 -1.474840 -0.792682 0.014351 -0.429267 -0.241399 -0.865918
charged 0.758542 -0.159783 -0.220778 -0.469440 1.334785 0.151840 -0.906752 -0.824166 -1.280671 -1.130980 -0.158663 -0.551518 1.434440 -0.036091 -0.515636 0.676621 0.434313 -0.202037 0.009658 -0.434746 0.605317 1.781988 0.168490 -0.234236 0.818763 -0.321172 -0.392806 0.649940 -1.332627 0.628407
charger -0.067665 0.776029 -0.007049 0.684501 0.326931 -0.569398 0.079207 -1.467204 0.015915 1.628560 -0.003707 0.646133 1.108726 0.004672 0.317141 0.331128 0.594751 -0.699427 -0.376753 -1.174622 1.054642 0.124822 0.398804 0.138180 0.264069 -0.656074 -0.123414 -1.664339 0.426168 -1.304796
charging -0.067216 0.161166 -0.126881 2.500313 0.813096 1.111440 -0.596685 -1.080381 -0.821294 -0.170135 0.088830 -0.555932 -0.671130 1.848422 0.895718 -1.322295 0.118497 -0.401122 -0.288956 -0.800108 1.002379 0.763662 0.909291 -0.232474 0.184343 -0.908463 0.177105 -1.437379 -0.746094 -0.034817
chat 2.074541 0.138882 1.202474 -1.435830 0.539572 -0.344067 0.358336 -0.263393 -0.318164 0.810648 0.086743 -0.181779 -0.029739 -0.182615 -1.376676 -0.609601 -0.402234 -1.391588 -1.058446 -0.795288 0.026338 -0.917534 -0.308281 -0.248253 -1.103823 -0.420365 -0.162650 -0.079591 0.166221 -0.130846
cheap 1.756356 -0.439548 1.802546 0.582647 -0.678294 0.463355 -0.787936 0.666037 -1.129196 0.249773 0.591424 -0.063101 -0.831595 0.173145 -0.741656 -1.081833 -0.378706 -0.477359 -0.017634 -1.950625 0.835965 0.708347 0.236610 0.772409 -1.896814 -0.986087 0.001509 -0.756909 -0.976405 -0.991235
check 0.514751 1.290857 1.256026 -0.569739 0.293306 -0.266887 0.275843 -0.278277 -0.140842 0.238434 -0.378931 1.272338 1.158822 0.798313 -0.209639 -0.376221 -0.136120 -1.201786 -0.186271 -0.271841 -0.618893 0.918211 -1.212047 -1.107323 -1.094234 -0.173927 0.828405 1.765869 0.622677 -0.808380
child 0.074192 -0.042416 -0.201466 -0.591672 0.575566 1.497900 -0.184954 0.154490 -2.007966 1.173144 -0.078407 -0.127844 -0.131787 -0.072332 0.891076 0.148528 -0.698623 -0.022422 -0.290716 -0.675432 3.052234 0.255154 -0.162114 1.234597 -0.369102 -1.042358 0.150048 0.589685 1.030079 0.535290
children -0.912054 0.479827 -0.225728 -0.160775 0.881106 1.176739 1.556442 -0.002117 -2.353914 0.817879 1.301112 0.367541 0.073247 0.226988 0.587313 0.606439 1.609272 0.302446 -1.219994 -0.249123 1.663755 0.522370 1.124715 -0.817213 -1.576879 0.228472 -0.027281 -0.906146 0.350856 -0.920778
choice -1.034091 0.937557 1.433339 0.283535 0.212485 0.861547 0.373540 -0.809965 0.583226 -0.133957 0.804431 -0.429229 0.370197 0.931108 0.998116 0.320933 0.247429 -0.675269 -0.595051 0.068180 1.084930 0.725300 -1.257642 0.191251 -0.667158 0.008540 -0.801098 0.409349 2.102907 -0.345389
chose 0.489657 -0.584080 -0.243837 -0.706138 1.915359 -0.677201 -0.714096 0.411688 0.826864 0.138694 1.255623 0.335345 0.163878 0.617106 0.561604 -0.117067 -0.150232 -0.061383 1.069259 -0.016474 1.413129 -0.127373 -0.200017 0.252052 0.566667 0.782261 1.023373 -0.079730 -1.585703 -1.122137
chosen 0.662174 -0.272686 -0.358976 0.163577 2.162366 -1.351625 1.179727 -0.308362 -0.351337 0.598266 -0.312713 0.157792 0.595351 -0.565946 0.508824 -0.448854 -0.144301 0.063176 0.083398 0.251672 1.249392 -0.641368 0.459528 0.506291 1.190429 -0.677918 0.487914 -0.004287 0.029407 1.300957
christmas -0.082805 -0.698802 -0.372745 -0.052910 0.747513 -0.284065 -0.549406 -0.432012 0.253245 0.362013 0.757306 1.655793 0.501254 -0.037134 -0.303501 -1.543612 -0.228782 -0.001118 -1.227209 -0.349978 0.916093 0.426476 0.213989 -0.406287 -1.214340 0.673020 -1.480109 0.303351 0.959188 1.007435
chrome 0.655965 -0.049768 -0.717121 2.029346 0.418207 -0.523610 0.623468 1.142071 -1.618784 0.281193 0.462102 -0.246585 1.054757 0.905848 -1.516112 -0.359928 -1.594186 -0.417709 -0.436275 -0.609257 0.373002 0.335102 0.523992 1.126917 -1.093492 0.121231 -0.089589 0.554993 -0.678287 -1.773863
chronic 0.227787 0.568074 -0.373001 1.467536 0.941719 -0.702083 0.254999 -0.601193 -0.912688 0.120104 -1.134911 0.392220 1.063388 -0.753048 1.327414 0.392817 1.101890 0.037740 -0.377294 -0.181483 1.033108 0.189075 0.047714 0.193367 0.313761 -0.310464 1.242363 -0.580902 0.484226 0.517339
church 0.860158 -0.517805 0.786107 0.475866 0.249235 0.055946 0.021316 0.326273 0.684676 1.083473 0.548814 -0.087035 1.798319 0.060532 0.882458 -0.537237 -0.517910 -0.232689 0.258876 -0.049121 1.371806 0.202676 -0.674081 0.146960 0.446012 1.137531 -1.463290 0.263809 1.298437 -0.592272
claimed 0.014656 0.147296 -0.322842 0.835516 0.816242 0.208400 -1.121379 -1.163690 -0.656739 0.561590 0.824365 -0.166087 -0.474496 1.217363 -0.470376 -2.130501 1.363687 -0.628550 -0.439093 0.117600 0.242117 1.368202 -0.370507 0.508263 -0.522886 -0.096831 -0.833011 -0.840601 -0.673287 -0.276228
clear 0.228127 0.504047 -0.133419 -0.091920 1.143215 0.139610 -0.149665 -0.231963 -0.337649 -0.113307 -0.295369 0.015091 -0.247301 1.254429 -0.443444 0.134835 0.741928 -1.749907 -0.282916 -0.564444 1.212757 0.302781 0.596119 -0.829087 -0.696828 0.233358 -0.495039 -0.627456 0.167582 -0.946520
close 0.530688 0.031767 -0.452583 -0.497078 0.958085 -0.358148 0.291801 0.133643 0.230793 -0.286320 -0.006798 1.431591 1.008282 0.659345 -0.822611 -0.866269 0.356694 0.613364 1.553253 -0.539756 0.485922 -0.440770 -0.508728 -0.463608 -0.776856 0.318301 0.574949 -1.321789 -0.018454 -0.882261
closes -0.759179 0.579225 1.509859 -0.375229 -0.203662 -0.595061 -0.457223 1.305846 -1.820438 -0.634601 -0.485048 0.485970 -0.390562 -0.546256 0.751562 -0.062896 0.469155 -0.882649 0.068372 -1.038893 0.023142 1.316935 -1.528034 -0.426396 -1.088661 0.804267 0.376007 -0.287844 0.257968 -0.164132
cloud 0.076790 -0.115313 -0.051194 -0.273312 0.241197 0.062186 -0.641455 -0.568477 -1.089115 0.731085 0.544312 -0.093053 1.132302 -0.333320 -1.865715 -1.439090 -1.000588 0.365403 0.340490 1.269216 0.881948 0.095795 -0.466147 -1.407567 -0.398860 -0.796905 0.078499 0.980923 0.261474 -0.464417
cloudcam 1.596326 -0.795257 0.263915 0.176742 0.261498 -1.854731 -0.834862 0.054978 -1.095792 0.181367 0.681441 -0.307565 2.071855 0.109370 0.092596 -0.171927 0.205935 0.640748 1.000325 0.411163 0.726813 -0.619068 -1.545511 0.286947 0.160502 -1.677589 0.596464 0.163204 0.354476 -0.051657
cloudcamâ 0.618269 -0.191904 0.661881 0.833170 0.861716 -0.975868 -1.013395 0.192121 -0.110852 0.699008 0.165373 1.357919 1.279546 0.052049 -0.574357 -0.220523 -0.705444 0.488952 -0.851187 0.030169 0.723210 0.049040 -0.125525 0.990754 0.925174 -0.152071 1.551895 -0.280827 -0.996807 -0.051186
clunky -0.188323 -0.340177 0.463113 0.132856 -0.141345 -0.437110 -0.196443 0.224556 0.734577 -1.414478 -1.296820 0.803557 1.584827 1.063034 0.284709 0.885317 -0.460247 -0.551382 -1.210261 -1.138698 0.314113 0.153401 -1.354026 0.250264 -0.672987 0.170341 1.138980 -0.501753 0.094900 -0.129386
code 1.904295 1.259011 0.718773 0.422245 0.436146 -0.804858 -0.323853 0.742904 -0.064286 -0.038174 -0.112277 0.119694 0.681744 -0.104973 -0.255192 -0.646340 0.067588 -0.138148 0.693851 -1.277157 -0.328841 0.229393 -0.297381 -0.447317 0.603148 -2.010868 -0.053681 -0.705555 0.025392 -1.501527
codes 1.110713 0.649580 -0.106487 -1.029211 -0.152316 -0.766508 0.350848 0.144767 -0.378918 0.523347 0.647646 -0.620573 0.620274 0.110427 0.326624 0.112546 1.046015 -1.018242 0.101517 -0.694073 0.378859 0.875529 -1.459983 -0.338445 0.199151 -1.114175 0.102790 1.052210 -0.460502 -0.539298
color 0.761024 0.173789 0.651178 0.128954 -0.387579 1.550997 -0.497541 -0.408687 1.517070 -0.567920 0.794052 -0.007373 0.509993 -0.858090 -0.390694 -1.099431 -0.629134 -0.752130 -0.776684 -0.628566 1.022576 -0.099693 -1.072304 -0.310822 -0.173992 0.052160 0.234277 -1.620506 0.275751 -0.182610
combination -0.124252 0.250169 -0.127052 0.658230 0.209142 -0.102292 -0.814137 0.116828 0.417682 -0.372861 0.396178 0.746846 1.086417 1.705810 0.647213 -0.099039 1.335678 0.028939 0.337842 0.463895 0.506250 1.674084 -1.411336 -0.342409 -1.065212 0.355421 -0.880540 -0.147013 0.419568 -0.180031
come -1.625241 0.778176 0.156067 1.898915 1.300336 -1.035285 -0.747831 -1.583460 -0.515274 0.412173 0.537356 0.166399 0.744912 0.692024 1.157428 0.687094 0.004676 -0.541063 0.662773 -0.357419 0.390361 0.513739 0.177659 -0.073600 0.667376 0.243090 1.192893 -0.977029 -0.622173 0.070094
comes -0.301518 -0.316921 0.538175 0.770452 0.576726 -0.215091 -0.297900 -0.002146 0.284867 0.339999 0.199089 0.756995 1.319358 -1.403049 0.923147 -1.104514 -1.269898 -0.051177 -0.571009 -0.150981 1.451981 -0.793960 0.274547 0.880314 -0.446874 0.483436 0.053727 -0.891449 1.579010 -0.726553
company -0.149731 0.534560 0.883509 -0.769422 2.443695 -1.426511 1.297306 -0.809660 -0.589262 0.586834 0.218947 0.987950 0.143035 -0.454289 -0.056820 0.787206 -0.689276 -1.344890 -0.706788 0.200358 0.554642 -0.582224 0.268559 -0.854648 0.931347 -0.543736 0.029356 0.366918 -0.396750 -0.651248
comparable 0.722497 0.248332 1.127394 -0.000812 0.846796 0.881991 0.093791 0.421712 0.112517 -0.264737 -0.213539 0.473599 0.235430 0.579127 -0.407523 0.265055 0.201676 -1.290987 0.201094 -0.220294 0.944691 -0.121292 0.096125 -0.032465 -0.324218 0.337088 0.973783 -0.399329 0.650300 -0.746742
compare 1.066027 0.352274 0.694615 0.811316 0.653770 -0.806983 0.451409 0.132665 0.239543 -0.695869 1.499497 -0.535116 0.450230 0.271970 0.525069 0.145388 0.583883 -0.081035 -0.120263 0.459803 0.695966 -0.734639 -0.079232 -0.307473 0.681180 -0.199307 -0.059697 0.500564 2.049112 1.514120
compared 0.402908 -0.082925 0.119674 -0.262326 1.520275 -0.026612 0.796656 -0.775131 -0.511171 -0.571183 0.186378 0.265422 0.658429 0.888548 -0.431554 -1.024206 0.720175 -0.377073 0.277317 0.772209 0.826823 0.555787 -0.007345 -0.080959 -0.396164 0.309353 0.002400 -1.260485 0.357654 -0.842307
compete 0.242387 0.261768 0.579829 0.739879 -0.302514 0.884955 -0.284405 -0.941195 0.033415 -0.174516 -0.398456 0.622801 0.958795 0.535576 0.528393 -0.381180 0.744988 -0.438569 -1.739751 0.919721 0.994535 -0.140046 -0.686821 0.513553 1.174444 -0.905350 1.294293 -1.127319 0.081686 0.373341
complaint 0.721209 1.295290 0.937701 0.662192 0.604127 1.081190 -0.061795 0.326490 -0.014012 0.855619 0.176289 -0.647783 0.503165 -0.046572 0.788879 -0.080251 -0.467007 -0.320191 0.487447 -0.163413 0.774160 1.059223 -0.219173 -0.157806 0.111662 -0.923050 -0.783051 0.338500 1.988103 1.320266
complaints 0.500348 1.089195 -0.428691 0.752610 0.599123 -1.410324 0.381363 -0.656491 -0.214956 0.537795 0.504187 -0.709956 1.320651 0.189834 -0.711987 -1.000163 0.370407 -0.782057 0.428170 -0.477816 0.778720 -0.404854 -0.776637 0.392165 -0.496798 1.263844 -0.054078 -0.766324 1.207907 -0.054484
completely -0.897949 0.837576 0.984223 0.935413 0.627809 -0.471614 -0.104864 -0.735754 0.522798 0.560614 0.458145 0.860080 0.356500 0.883589 1.111299 -0.274269 0.149902 -0.317816 -0.983365 -0.699817 0.726795 0.455793 0.250034 0.675784 0.501414 1.080101 0.104133 -0.424122 -1.617516 0.426472
complex 1.011112 0.027411 0.170203 -0.644940 1.122699 -0.162219 -0.062213 -0.723492 -1.280347 0.563188 -0.238389 -0.868700 0.450260 0.421259 -0.036033 -1.544890 -0.931063 -1.897501 1.060284 -0.234805 -0.179756 0.945255 0.473580 -0.026079 0.884025 -0.503634 -0.210429 0.311825 0.406898 -0.312935
computer -0.180739 0.516056 0.516609 -2.031736 0.677755 -0.806390 0.450077 -0.274542 -0.340531 0.396237 -0.418414 0.205675 0.929048 0.969054 -0.275330 -0.372429 1.065493 -1.096653 -0.576789 0.074208 0.309571 0.430152 0.410684 -0.066502 0.183232 -0.603143 0.177259 -0.330214 -0.814265 -1.580629
confusing 1.692234 0.592894 -0.702408 1.099018 0.669288 -0.158394 0.252825 0.368394 -0.606122 0.402193 0.477078 1.201802 0.600917 -0.040694 -0.032191 -1.633827 0.730794 -0.333888 0.611462 -0.917587 0.544827 -0.425166 -0.240582 -0.172504 -0.280949 -0.010675 -0.406843 -1.492433 -0.274493 -0.436149
connect 0.540091 -1.740182 1.406804 0.739110 0.997728 -0.620143 -0.835536 -0.436151 -0.224275 0.301952 -0.427454 0.719923 0.007429 0.098368 -0.130822 -0.544407 -2.481383 -0.228436 -1.724317 0.610710 1.244835 0.770209 -0.678672 -0.360409 0.579281 -0.112299 1.652132 0.255259 -0.072860 -0.370655
connected -0.285040 0.372779 0.275775 0.808338 2.252182 -1.292898 0.557404 0.157578 -0.178235 0.743644 -0.209282 0.801154 0.811388 0.369900 0.222076 1.129732 -0.063709 -0.863943 0.905799 0.028473 1.548549 -0.187266 0.702254 0.017428 -0.622086 0.681862 -1.501391 0.228735 -0.920366 0.365580
connection 0.298629 0.445693 -0.412743 1.258435 0.893854 -0.277214 0.437445 -0.551670 0.128831 -0.444992 -0.196085 0.789092 0.018602 0.822275 -0.352858 -0.333717 0.908449 -2.189296 0.394060 -0.965488 0.033804 0.002605 -1.493872 -0.361440 -0.781212 -0.075203 -0.205681 -0.242901 -0.006379 -0.907681
connectivity 0.218327 -0.935879 0.712161 -0.333206 -0.347946 -0.448552 -0.260213 -0.648261 -0.236946 -0.552745 0.672192 0.153607 0.715644 1.041421 0.157556 -1.256953 1.580412 1.319485 -1.455301 -0.008209 0.288481 0.422202 -0.901233 -0.558883 0.794998 -0.278330 1.067922 -0.129839 -0.085284 0.199774
consider -0.382177 -0.859286 0.409010 -1.320178 1.413684 0.642993 -0.416643 -1.421358 0.700001 -1.372596 0.239167 -0.242600 0.314318 -0.006012 0.141316 -0.783651 0.924260 -1.095146 -0.233020 0.175312 0.586686 0.603137 -0.105328 0.295241 0.314016 -1.773731 0.139976 0.243329 -0.605151 0.069028
considering 0.641118 0.045300 0.987984 -0.173818 -0.013990 -0.292190 -0.392606 -0.270745 0.769649 0.399380 1.159456 0.121754 0.233366 -0.254405 0.564774 -0.095246 0.831781 -0.906808 -1.463111 -0.807661 0.447186 0.127038 -1.819591 1.333838 -0.060934 0.646003 -0.608455 0.289472 -0.191262 0.372881
constant -0.855659 -0.327184 0.796701 -0.158969 -0.167792 -0.050619 -0.396041 0.380564 0.167613 -0.924759 -0.619472 0.954123 0.621618 1.591638 -0.496163 0.974190 0.504623 -0.427024 -0.077617 -0.622322 0.128714 0.529344 -1.633895 -0.094136 -1.144502 0.074980 0.788237 -1.188200 0.438042 -0.015145
constantly -0.760381 -1.877816 0.412191 0.389747 1.239252 0.862220 0.225615 0.510728 -0.814165 -1.925376 0.757585 -0.073974 1.876462 0.504164 1.433225 0.021063 -0.058462 0.719727 0.667783 -0.004682 0.959210 1.670790 -0.130648 0.045080 0.412516 0.616602 2.741347 0.086837 0.036582 -0.463676
consumption -0.422620 0.511841 1.546485 -1.024331 0.732033 -0.932688 0.166036 0.328120 -1.913115 -0.323316 0.144127 1.175329 -0.566405 -0.254976 -0.685169 -1.010858 0.209376 -0.240734 -1.421169 0.453677 -0.164003 -0.449803 1.107341 0.044525 -0.089006 -0.409854 1.231433 0.520588 0.429775 0.169251
contact 0.130049 0.291400 -0.659537 -0.187699 1.239327 -1.407847 -1.219995 0.583375 -1.591921 1.233828 0.909733 0.598425 0.582015 -0.940192 -0.483355 0.349877 -0.389581 -0.166320 0.605379 0.580544 1.019823 0.786690 0.160483 -0.131539 0.212107 1.530541 0.069168 0.024309 0.032482 -0.599592
content 0.777958 0.452998 -1.686579 0.796062 0.072162 -0.204274 -0.480907 -0.729785 -0.799339 0.647438 0.346505 -0.771228 1.773076 0.615649 -0.637104 0.189782 -0.848897 -0.297819 -0.305790 0.005796 0.124417 1.297199 -0.212745 0.433089 0.151469 0.554789 3.206502 0.579550 0.174529 -0.348100
continue -0.539855 -0.380769 0.306223 2.029936 1.133751 -1.114880 0.072581 0.967775 -1.421730 0.275944 0.221387 0.238897 0.896271 1.358601 0.279036 0.036090 0.337090 -0.006422 0.891384 -0.843319 0.356450 1.298017 -0.022536 0.325734 -0.338709 0.225928 -0.460822 0.433751 -0.336874 -0.421154
controls -0.082449 0.683080 1.803085 0.589467 -0.002031 0.177943 -0.562049 0.222671 0.683467 0.614441 1.499611 0.748309 -0.633138 0.721721 1.219773 -0.040413 0.124462 -0.246470 -0.659432 -0.198282 1.083872 1.146576 -0.838634 0.168879 -0.882362 1.178936 -0.630211 -0.845997 0.063645 -1.035866
convenience 0.858743 0.078037 1.364094 0.359039 0.959108 -0.555734 -0.177691 0.997602 -0.146790 -0.117888 1.635155 1.356932 0.460952 -0.306746 -0.101703 -0.258230 0.382251 -0.801075 -0.936253 0.294439 0.161142 -0.515910 0.576389 0.037629 0.068847 0.110052 -0.669280 0.444670 -0.107605 0.202836
cooking 0.289900 -0.169114 1.778234 1.102508 0.391625 -0.569331 0.329626 -0.522184 -1.292950 -0.989280 -0.402754 0.752004 0.547915 0.547682 0.242037 -0.617321 -0.952939 -0.880058 -0.153036 0.671722 0.238745 0.127611 0.648137 0.661699 0.633204 -1.002634 1.714162 -0.613857 0.107426 -1.489443
cool 0.807831 0.282539 1.917743 0.859884 2.027769 0.241868 2.242754 -0.043798 -0.468350 -1.404876 0.025571 0.769933 1.160633 -1.376431 0.578782 -0.781494 -0.362327 -0.011723 1.164122 0.417605 0.409086 -0.521084 0.406735 1.224900 0.544328 0.293109 0.080381 0.752825 0.013481 -1.070094
cord -0.604743 0.076354 0.273913 1.639249 0.562449 1.192967 0.312993 -0.196472 -0.455711 0.533853 -0.671392 -0.318253 -0.076915 0.689802 1.017012 -0.586577 0.995985 -0.602817 -0.698243 -0.371001 1.353846 0.292834 0.313177 -0.198683 0.516737 -1.582381 1.455123 -0.715251 -0.265513 0.466002
costs 1.461902 -0.193227 0.914410 -0.778585 0.259907 0.875803 -0.068285 -0.252492 -0.802713 0.677742 -0.626053 0.301330 0.830789 1.500275 1.210338 0.336235 0.151191 -0.791924 -0.243860 -0.294050 -0.115639 1.844548 -0.610264 -0.903380 -0.971485 -1.229459 0.062500 0.209011 -0.396148 -0.464557
could 0.372948 -0.289530 -0.545418 0.579056 0.319811 0.178909 -0.097551 -0.677902 -0.606817 -0.124883 0.079426 0.686010 0.446585 -0.017880 0.261871 -0.698152 -0.576989 0.178616 0.170811 -0.717935 1.222334 0.071789 0.012834 -0.346522 -0.568635 -0.488813 -0.276229 0.481679 0.678350 0.026564
couldn't -0.053246 0.271504 0.936507 -0.058462 1.881834 0.264862 -0.948752 -1.229835 -0.034748 1.148024 0.018889 0.921329 -1.227260 0.896866 -0.388534 0.340050 0.062891 -0.176833 -0.213338 -0.728034 0.738349 -0.132546 0.890364 -0.757321 -0.107745 0.177696 1.330143 -0.235353 0.201497 -0.489837
counts 0.448025 -0.179963 0.573184 -0.405693 1.776673 0.210234 0.155975 -0.898249 0.237034 0.000286 -0.457675 -1.030770 0.695679 -0.651075 0.215284 -1.486154 0.703032 -0.208809 0.175373 0.211371 0.275467 0.104723 0.392854 0.833554 0.790819 -0.955447 0.786104 0.045910 0.548665 1.494167
cover 0.766718 0.184637 0.028607 -0.770469 0.856737 0.007984 -0.455246 -0.639179 -0.322110 0.423217 -0.124588 -0.449972 -0.162531 0.622556 1.117812 -0.346659 1.716176 0.575060 -0.281579 -0.249525 1.282826 1.088372 -0.975467 -0.007978 0.759463 -2.050011 0.524141 -0.396071 0.848247 0.613942
crashed 0.138846 0.574579 -0.282698 0.950671 -0.072591 0.594976 -0.420486 -0.002549 -1.203376 0.557941 -0.474440 0.296905 0.301431 0.020914 -0.577147 -0.812539 0.473260 0.196499 -0.592115 0.570446 0.147058 2.354788 1.266435 0.815760 -0.281725 -1.226265 0.331239 0.364793 -0.797043 1.040551
crying 0.755717 -0.424680 0.380268 0.174969 1.485533 -0.573768 0.253144 0.012808 -0.334785 -1.132551 -0.448923 0.365274 0.979307 0.690516 0.854129 -0.244986 0.911486 -0.315113 -1.050287 0.683215 0.685302 -0.171899 1.433423 -0.730218 0.391278 -0.518128 -0.392994 0.015361 0.474229 -0.283440
culprit -0.391722 0.147387 0.861538 0.408313 1.133691 1.051086 -0.010255 -0.018529 0.295574 0.492369 -0.441532 1.692095 0.502720 1.651668 0.620702 0.301528 0.439224 -0.371638 -0.729270 -0.143073 0.630024 -0.059871 0.560334 -0.384980 -0.131597 0.417958 1.223215 -0.328391 0.820549 1.518535
cumbersome -0.228138 0.240538 0.575354 -0.596850 1.173903 -0.215024 1.078084 0.542661 1.092717 -0.672800 -0.261785 0.361072 -0.191526 -0.630304 0.053639 -1.874409 0.335448 -0.843874 0.526124 -0.030451 0.331758 -0.088878 0.334574 0.854053 0.392557 0.015355 0.285992 -1.557203 1.057711 -0.419954
curious 2.236104 1.111855 -0.778955 0.047271 0.228743 -0.012828 -1.183843 0.484929 0.844780 0.697007 0.467137 -0.315196 0.539103 0.119773 0.529603 -0.528075 1.670711 -0.306157 -0.821159 -0.090225 1.753553 -0.790506 -0.824856 0.045138 -0.276335 -1.991126 -0.515713 0.012998 -0.791594 -0.024124
customer -0.738766 0.236355 0.547177 -0.986791 1.796533 0.180410 -0.554378 0.024705 -0.094155 0.703261 -0.129957 1.724307 -1.534152 0.327984 -0.192758 0.802550 0.347666 -0.077646 0.260499 -0.756260 1.645648 0.109563 0.977843 -0.600533 0.318409 -0.479138 1.385655 -0.662150 0.084146 -0.553398
data 0.320596 0.596221 0.079171 -1.718537 0.230941 0.197169 0.077198 -0.464035 -0.753623 -0.371162 -0.313378 -0.633455 0.629434 -0.329587 -1.293197 -0.693789 0.566747 0.489379 -0.763175 0.857682 0.856023 0.056307 -0.151708 -0.692159 -1.052391 -0.403890 1.487180 0.928117 -0.394465 -1.454237
daughter -0.459907 -0.580774 -0.229787 -0.356238 0.366570 0.365578 -0.427788 0.955631 0.182431 -1.029283 0.364949 -0.013419 0.601702 -0.274118 0.154558 -1.335631 -0.453708 0.854667 -0.894536 -0.355608 2.164847 0.036682 -0.134107 -0.687377 -0.667435 -1.028544 0.105367 1.228505 1.102596 0.065878
daughter's -0.807904 -0.044632 0.589209 -1.137851 0.512107 -0.278473 -0.132077 -0.293818 -0.703638 0.762761 0.271781 2.157324 0.275227 -0.651508 -0.746716 -1.659716 -0.219256 0.724603 -1.055673 -0.528802 0.167011 0.271845 0.237581 -0.383062 -0.764058 -0.347045 0.089795 1.459165 0.176539 -0.087654
daugter 0.477723 0.320498 -0.569893 -0.162497 0.224592 1.209232 0.521556 0.084129 0.797066 -0.019004 1.106318 -0.842249 0.535048 0.028484 -0.106876 -1.667241 0.305751 -0.187750 -1.020954 -0.609733 1.315401 0.707511 1.220105 -0.273731 -1.083795 -0.881425 0.185246 -0.167550 0.889311 0.094299
day -0.542345 0.922378 0.358143 0.757725 0.975553 0.704171 -0.407725 0.387152 0.052535 -0.575853 1.218288 0.000173 0.596507 0.694851 -1.247659 -0.488766 -0.330774 -1.807688 0.173794 -0.278142 0.273726 1.615148 1.032255 -0.248139 -1.053642 0.356378 -0.451161 0.612160 1.067044 -0.537952
days -0.669963 0.200466 -0.483215 -0.396287 0.352874 1.232984 0.433374 1.169035 -1.257202 -0.327793 0.505046 -0.296874 0.484956 0.273512 -1.047319 -0.940214 1.609827 0.038263 -0.533281 -0.809315 0.703133 2.176475 0.051979 -0.462803 -0.896132 -1.427487 1.051257 -0.372669 -0.364046 1.012719
decent -0.354367 -0.425413 1.079329 0.523340 0.443506 -1.021002 1.284611 0.191844 -1.718691 -0.216552 0.192789 0.689419 0.582422 -0.354686 0.971281 -1.441628 0.493960 0.000577 0.350321 -0.082100 0.757693 -0.810701 -0.694728 -0.988806 0.439599 0.569331 -0.163604 0.402900 0.815906 -0.955576
defect -0.946949 0.495559 0.829877 1.855056 1.425797 -0.612587 -0.173205 0.324220 -1.881397 -0.039723 1.036520 -0.029729 0.145323 1.192271 0.246827 0.400532 0.551473 0.036993 0.681412 -1.069431 0.503795 1.113336 -0.190788 -0.212645 -0.526972 0.663095 -0.488138 0.277060 -0.142705 -0.151650
defected -0.218041 1.150688 0.278235 1.499221 0.074712 -0.027650 -0.515735 -1.301042 0.311539 -0.044076 -0.081864 -0.141634 1.015474 0.835677 0.078704 0.530623 0.754790 -0.996168 0.037362 -0.760631 1.082075 -0.092020 0.660956 -0.154063 1.181397 0.918122 1.419906 -1.602593 0.358754 -0.058537
defective -0.232170 0.167038 -0.400543 0.894323 1.387646 0.039190 -1.860612 -0.643725 -0.536433 0.424998 1.552584 -1.275803 1.239118 -0.471179 0.180289 -0.651015 1.570946 0.431098 0.039347 -0.653825 -0.438065 2.118212 0.197916 0.222256 -0.606660 0.158644 0.358587 -0.751126 -0.540671 -0.784152
definitely 0.232235 -0.249397 -0.324458 -0.253947 2.498630 0.808614 0.936642 0.511497 0.253657 0.167173 0.672929 -0.794033 0.192262 -1.286496 0.156992 -0.502684 0.267294 0.371104 -1.268999 0.022727 1.524013 -0.157724 -0.334558 -0.197852 1.704724 -0.211270 0.632403 0.736669 -0.745679 -0.355450
delete -0.505438 -1.071431 0.414463 0.213554 0.011266 -0.404733 0.267332 -1.246562 -1.081539 -0.448423 -1.209251 0.712944 1.159228 1.305733 0.256408 -0.135064 -0.055614 -0.830220 0.556454 -0.568472 0.175908 1.799919 0.072315 0.122089 -1.123225 0.261216 0.872824 0.026375 -1.017322 -0.527767
delivered -0.036487 1.425481 -0.257977 0.521007 -0.487195 -0.238812 -0.849984 0.004060 -0.377326 -0.025634 0.267302 0.447601 0.994192 0.861139 0.372849 -0.428280 -0.543329 -1.066415 -0.828785 -0.314125 0.208319 1.370133 0.845430 0.151136 -0.165553 0.457329 0.032673 0.186170 -0.725010 -0.764160
described 0.609510 -0.262541 -0.069394 0.317654 1.177432 0.063553 -0.094806 0.435331 -0.607114 -1.203199 0.923912 -1.396864 0.048391 0.698985 0.382106 -0.913961 1.284475 -0.609153 0.233072 -0.414213 0.352389 0.094209 -1.157502 -0.124618 -0.417233 -0.431202 -0.472878 0.069774 0.469289 1.284518
designed 0.247690 0.014377 1.057481 0.553010 -0.067029 -2.141087 -1.398533 1.653697 -0.360058 -0.944997 0.724514 0.024732 1.092055 0.831743 -0.428676 1.149796 0.436638 -0.472289 0.349699 0.744416 0.865762 0.595246 -0.957153 -0.508433 -0.803351 0.660972 0.533680 0.970816 1.200136 0.622803
desk -0.266089 0.737611 -0.154959 0.686785 -0.332261 0.055884 0.339016 0.641422 -0.630229 -0.440623 -0.327072 1.140379 0.200374 -0.743450 -0.663648 -1.634162 0.668409 1.038655 -0.771177 -0.209997 1.007135 0.578140 -0.800864 1.139017 -2.005396 0.371763 0.425864 0.101232 0.222315 0.594909
despite 0.359943 -0.352993 0.623481 0.864675 1.095258 0.105394 1.054549 0.440145 -0.802588 0.002102 0.062700 -0.356704 -0.116685 -0.383969 0.488431 -0.156807 0.304021 -0.468660 0.238993 -0.071272 1.041324 0.887004 -1.149731 1.026056 -0.532212 0.354731 1.745251 -0.044765 -0.005995 -0.947536
destroyed -0.807792 -0.568306 0.142312 -0.418851 1.775101 -0.341734 -0.430845 0.693214 1.060546 0.521524 0.620222 0.046239 0.880676 0.656187 0.945346 0.332582 1.543077 -1.095931 -0.467890 0.314688 0.896180 0.142815 0.669033 -1.067799 0.448438 0.405275 0.539116 -0.162927 0.132347 -0.484098
device 0.225260 0.085837 0.379811 -0.421699 0.330512 0.181727 0.138819 0.513077 -0.320092 0.318761 0.079459 0.727919 0.807492 0.752229 0.468443 0.117662 0.451212 -0.481686 0.402929 -0.278457 0.182300 0.386662 -0.059268 0.072517 -0.437405 0.027883 0.228137 0.808716 -0.089606 -0.221125
devices 0.660156 -0.271280 0.716308 -0.007071 0.385936 -0.742327 -0.169289 0.836275 -0.768936 0.088335 1.667692 0.457400 -0.036210 0.389011 -0.105094 -0.600334 -0.501690 -0.138126 0.111035 -0.081221 1.568374 -0.403122 -0.608867 -1.290422 0.721010 1.026936 -0.088817 0.863803 0.280287 -0.081650
did -0.353057 1.496701 -0.259919 0.818864 0.552189 -0.796137 1.458454 0.468472 -1.154447 -0.505967 0.547295 -0.032168 0.419464 1.735915 0.213427 -1.029766 1.405595 -0.262897 1.174658 -0.167000 0.612806 0.328798 -0.198349 0.259431 -0.324212 -0.289853 -0.225362 0.534873 -0.171863 -0.393483
didn't 0.215218 0.535067 -0.035141 -0.171368 0.369013 0.925867 -0.511922 -0.471381 -0.193349 0.464517 0.481967 0.597464 -0.338031 0.309549 0.191052 -2.794602 0.453251 0.168979 -0.266551 0.856023 0.460098 -0.593760 -0.284306 -0.912436 -0.737297 -1.223586 1.173526 -0.279798 0.314844 -0.343296
didnt -1.696869 1.058740 0.672796 0.054642 0.132111 -0.390546 -0.236297 0.962887 -0.379669 -1.072058 -0.143390 -0.607501 1.728595 0.746987 0.927972 -0.098306 0.667375 -0.477396 -0.849470 0.054287 1.449111 0.276255 0.944987 -0.489360 1.709885 -0.610558 0.709934 0.383511 1.216034 -0.437265
difference 0.925001 -0.111098 -0.353587 -0.615182 0.715784 -0.222902 0.199644 -1.050200 0.322257 0.525985 -0.212208 -0.323750 0.438629 -0.031092 -0.433725 -0.733960 1.410326 1.706316 0.015876 -2.022055 1.783341 -0.428462 -0.971379 -0.162783 0.715083 -0.279355 0.445600 0.118416 -0.181765 0.606434
different -0.131041 0.902468 -0.452087 0.560789 0.229504 0.066956 0.238765 -0.761387 0.441864 -1.037613 1.110605 0.208005 1.323592 -0.620317 -0.113775 -0.479873 -1.037775 -0.241677 -0.360581 -0.362957 0.960698 0.502791 -1.438018 -0.004235 -0.004603 -0.290719 0.202725 -1.480339 0.760292 0.820458
difficult -0.370257 0.162638 0.176932 0.446558 0.597260 0.650613 0.522150 -0.076138 0.020844 0.851816 1.486792 0.059346 1.406949 0.121189 0.590003 -0.985630 0.019808 1.365305 1.025466 0.263958 1.461704 0.446793 0.648559 0.273951 -1.038000 -0.650671 1.572571 -0.307426 0.720093 -0.611210
digital -0.128841 -0.401363 1.108408 0.134046 0.019082 -0.464513 -1.948335 0.501270 0.103494 -1.005708 0.195700 1.709738 -0.303530 0.275629 -1.311950 0.360472 1.146470 -0.429716 -0.041325 -0.333785 1.102470 -0.618092 0.021820 -1.145074 -0.292848 0.499149 0.475973 -0.737505 -0.484665 -0.644741
dimmer -0.823218 -0.816670 0.440194 0.250725 0.210135 -1.480696 -0.296550 -0.382799 -0.680601 -0.056693 -1.214356 -0.009171 1.090468 1.233387 -1.175465 -0.710080 1.589844 -0.659329 0.008879 -0.656760 -0.177021 -0.022468 -0.600584 0.094279 -0.239443 -0.614005 -0.157257 0.239084 1.138666 0.769732
directly 0.407457 0.340232 0.124850 1.139464 0.606834 -1.469608 0.672686 1.459731 -1.079437 -0.031759 0.232048 0.056557 1.081575 0.604908 -0.792193 0.782889 -1.269258 -0.891347 1.254480 -0.016390 0.503856 0.188562 0.317074 0.976582 -1.202848 -0.711496 0.390522 0.432493 -0.595130 -0.479223
disappointed 0.640510 0.605356 -0.672651 -0.357239 0.481163 1.065471 -0.127332 1.127373 -0.399747 -0.008402 -0.155224 -0.418431 1.115694 0.048805 0.933813 -0.647653 0.161217 -0.788376 0.197312 -0.553687 0.905665 -0.162678 -0.112365 0.024532 -0.407993 -1.310373 0.011028 -0.383050 -0.300199 -0.986940
disconnected 0.530311 0.667150 -0.359516 -0.069054 1.003481 0.105491 -1.829628 -0.835407 -0.101409 1.779096 1.695080 -0.155167 -0.561681 0.345002 -0.617286 -1.082836 0.466742 -0.819815 -0.018256 -0.475546 0.672132 1.490923 -0.084987 -0.186993 -0.184915 1.137696 -0.007005 -0.574388 0.293079 0.123373
discount 1.369536 0.081488 0.009788 -0.671087 1.300697 -1.071130 0.798277 0.087364 -1.881471 1.080296 -0.159036 0.904586 -0.943210 -0.138221 0.240267 -0.187376 0.553814 -0.366740 0.406950 -0.645790 0.363194 -0.526506 -1.225788 0.011004 -0.488108 0.326015 0.218340 -0.561041 -0.045173 -1.776542
disease 0.392187 -0.097929 0.152884 -0.508510 -0.394601 0.474508 -1.167302 0.229163 -0.517307 0.229204 -1.542877 1.186550 1.100512 0.708911 -0.202748 -0.918484 0.096369 -0.241957 -1.357616 1.522005 1.222591 -0.087942 -0.371802 -1.402074 -0.321016 -1.154247 0.412171 0.719416 -0.631373 0.058002
do 0.551725 0.605247 -0.430577 -0.053226 0.601262 0.989689 0.602531 0.256431 -1.193516 -0.173428 0.741412 0.113442 0.344392 -0.004112 -1.520758 -0.257718 0.177695 -0.868584 -0.049911 -0.263094 0.502821 0.693688 -0.356631 -0.829547 0.182598 -0.614642 0.912044 -0.440434 -0.176218 -0.879602
does 0.510892 -0.528878 0.590236 0.478722 0.174438 -0.932340 0.403148 -0.382532 0.047885 -0.990973 -0.190680 0.992889 1.134358 0.030157 0.097531 -0.708597 -0.438112 -0.482262 -0.070837 -0.171217 0.554959 0.134901 -0.742504 -0.270684 0.264699 -0.168247 0.125125 0.701419 0.577917 -0.548841
doesn't 0.529958 -0.008070 -0.646767 0.993333 -0.074311 0.208998 -1.262635 -1.171122 -0.976720 -0.851995 -0.452920 -0.812482 2.208760 0.508209 0.704015 0.000705 1.400175 -1.400961 -0.768735 0.412093 0.586533 -0.790762 -0.264136 -0.300271 0.908804 0.351173 1.212359 -1.005094 0.504147 -0.893164
don't -0.458064 0.182945 0.029516 -0.645989 0.623593 -0.390959 1.012037 -0.574907 -1.343756 0.520325 0.753917 -1.100014 1.297252 0.541603 0.473749 -0.554450 0.163197 -0.437176 0.995596 0.327448 1.795280 1.149374 0.556037 -0.090495 -0.317186 0.341145 -0.496997 -1.466150 0.361672 -0.519140
dont -0.074902 -0.389213 0.576427 -0.025685 0.923052 -1.108690 -0.373660 0.770607 0.663758 -1.061941 -1.072403 0.021050 0.337375 0.308009 0.492678 -0.483355 0.568228 0.605240 0.157989 -0.704728 0.033458 0.627710 -1.254387 -0.043876 -0.276490 -0.594844 2.396845 0.892894 0.404212 -0.036944
dot 1.146311 0.393311 0.761814 0.618136 0.991115 -1.458487 0.662652 -0.422890 -0.770171 0.596040 0.599263 0.277652 -0.612995 1.370876 -0.946581 -0.143103 -0.188325 -0.820635 -0.345968 -0.941148 0.355750 -0.612960 0.491748 0.512953 1.087770 -0.986153 0.350326 -0.218550 1.820029 0.255165
dots -0.193933 -0.401751 1.226507 0.114589 1.282626 -0.581762 0.092134 -0.087804 -1.061908 0.636769 0.779705 0.276300 -0.460941 0.112095 -0.150570 -0.951336 -0.550058 -0.247606 0.119209 0.000907 0.788557 -1.310338 -0.568746 -1.111258 -0.417966 0.591333 1.572927 0.709681 1.583027 -0.081148
down -1.890022 0.937339 0.086300 -0.345778 1.725916 -0.172342 -0.096213 -0.040699 1.090551 -0.163399 1.027810 1.267591 0.441032 0.165968 0.645201 -0.438659 0.894747 -0.807741 -0.672905 -1.028605 0.377496 -0.179480 -0.260314 1.883852 -0.392142 -0.238841 0.126237 -0.999447 -1.387013 0.416556
download -0.188078 -0.282661 1.684145 0.858283 0.144255 -0.596667 -0.215536 -0.040437 -0.082940 0.059646 0.707594 0.757350 1.598581 -0.453571 0.237083 0.644829 0.298429 -0.601592 -0.194537 0.074415 0.304362 1.212845 -0.086549 -2.087711 -1.226461 -0.074966 0.371050 0.596317 0.322636 -1.659482
downloaded 0.302750 0.275907 -0.376228 0.037653 0.874979 0.657131 0.228225 -0.204440 -0.480314 -0.027207 -0.070404 -1.036496 0.367978 -0.340754 -0.144729 -0.851907 0.314848 -0.725176 -0.708503 -0.534137 1.139341 0.751253 0.087136 -0.304991 -0.746724 -0.126197 0.178059 0.024811 -0.652560 -1.001850
downloading -0.441996 0.321868 0.919005 -0.158655 1.453240 -0.843469 -1.746723 -0.141367 1.390674 -0.512981 0.791977 1.201230 -0.331371 0.250306 0.702377 0.313048 0.474755 -0.508965 -0.449076 -0.282267 0.280822 -0.385892 0.432263 -0.133166 -0.434588 -1.035507 0.371780 0.610935 1.362721 0.746361
drm -0.203629 -1.137720 1.365496 0.696925 0.518531 -0.663056 0.807336 -0.306860 -1.395807 -0.543608 1.289615 0.736212 1.410268 -0.731074 0.270841 -0.059211 0.450826 -0.587505 0.688905 0.238671 0.714108 0.495983 -0.813042 0.406146 0.807862 -0.511225 1.108850 -1.131920 0.410356 -0.719549
droid 0.849834 0.106830 0.665032 -0.108405 1.355284 -0.681442 -0.095189 -0.674346 -0.333897 -1.007983 0.555839 -0.130288 0.605524 -0.220992 -0.869452 0.602880 0.675494 -0.096408 -0.361787 -0.459485 0.855068 1.682994 0.737425 -0.300447 2.182666 -0.790568 -0.780459 0.064705 -0.630618 -0.033819
drone 1.156098 0.440823 -0.099930 1.209293 1.327792 -0.223388 0.362079 1.513203 -0.603787 -0.405692 -0.215321 0.905591 1.214091 0.058377 -0.154663 -0.009616 -1.956115 0.068065 0.406217 0.597279 0.165128 -0.138207 1.171647 -0.479124 -0.864533 -1.391503 0.462749 0.913805 -0.306423 -0.346587
drop 0.512042 0.460792 0.408081 -0.058549 0.869616 0.319008 0.957040 -0.229525 -0.358143 -0.496409 0.410155 1.570048 1.222497 -0.966194 -0.262791 0.158258 -1.215113 -0.789232 -0.470100 -0.870371 0.654655 0.851259 -0.086639 0.222786 0.206720 0.516088 0.402936 0.136029 0.551701 -1.376967
during 0.996022 0.024166 -0.250314 -0.759990 0.527333 -0.457755 0.236464 0.326977 0.622329 0.838551 0.601819 0.357299 0.872277 -1.228563 0.600520 -0.534144 0.081084 -0.016461 -0.139497 -1.369687 0.902012 -0.500399 -0.424583 0.847946 -0.244537 0.150778 -0.660666 1.438983 -0.232524 1.668204
e 0.427686 -0.077787 1.736960 -0.135694 0.250504 -1.084250 -1.683319 0.516238 0.168122 0.219964 1.043311 1.009267 1.078019 -0.078456 -0.395041 0.748443 0.873352 -0.735996 -0.189668 0.354933 -0.269275 1.161489 -0.485621 -0.284666 -1.149573 0.438778 0.136909 1.097169 -0.035882 -0.484074
each 0.430868 0.675196 -1.300210 -0.008464 1.297473 -0.572812 -1.557031 -0.342885 -0.120277 0.589695 0.648986 -0.200520 0.737907 0.841996 -0.027870 -0.007205 0.610542 -0.195928 -0.717949 0.538813 0.581344 0.987638 -0.806333 -0.141584 0.521492 0.231242 -0.325480 1.278924 0.457867 0.316758
earlier 1.064953 0.945816 -0.576589 -0.994358 0.054778 0.589059 -0.233346 -1.574990 0.367931 0.211499 -0.358883 -0.663285 0.701090 0.496899 0.292894 -0.274877 1.036040 -0.713303 -1.589913 0.027438 1.680542 0.273559 -1.482477 -1.197946 -0.072722 -0.332041 0.519474 -0.258028 0.358477 0.566731
easier 0.925787 0.597907 -0.717313 0.940200 0.325251 1.384248 -0.244539 -0.210507 -1.183643 1.216452 0.021031 -0.371269 0.825266 -0.407063 0.529402 -0.533123 -0.577370 0.461747 -0.329144 0.349697 1.786033 0.691276 -0.252898 0.313042 -0.711856 1.285269 -0.272670 -0.296047 0.291511 -0.781710
easily -0.047680 0.531399 0.483292 0.382564 0.992929 -1.243776 0.074792 -1.372770 -1.111383 -0.353069 0.589127 -0.590309 0.145824 -1.712272 -0.324813 -1.128274 -0.827365 -0.272880 -0.214731 -0.960559 0.944800 0.801912 0.860200 0.092669 0.571509 -0.018704 1.195816 -0.611633 1.202935 -0.409701
easy 0.132428 0.481729 0.255650 0.450034 0.129158 -0.364804 -0.358275 -0.865592 -0.077767 -0.555784 0.051164 0.486982 1.395004 0.431596 0.258921 -0.494867 0.668600 0.471924 0.069453 -0.300328 0.373158 0.029103 -0.605554 0.267735 -1.305052 -0.045921 -0.662734 0.157921 0.186890 -0.344382
echo 0.159408 0.319081 0.555324 -0.640922 0.468020 -0.094109 0.120267 0.147212 -1.053340 0.629327 0.437915 -0.482587 1.021952 0.565378 -0.651134 0.009451 -0.374878 -1.078485 -0.151839 -0.165467 0.604316 -0.920597 -0.185568 1.116889 0.209655 -0.618541 0.294002 -0.408753 -0.025146 -0.621620
echos 0.617043 -0.064964 0.999611 -0.052638 1.308895 -0.600347 -0.068852 0.300853 -0.834054 -0.129313 0.887062 0.275341 -0.585018 -0.056723 -0.271281 0.122463 -1.130257 -0.942306 0.324601 1.217994 1.986576 -0.736804 -0.720061 -1.143557 0.378136 -0.047675 2.049475 0.131218 1.286037 0.494060
edge -0.549109 0.441864 -1.020465 0.110135 1.214416 0.376386 -0.545772 -0.492552 -0.918056 1.109200 0.354388 -0.378860 0.509699 0.871997 -0.047414 -0.334443 0.602349 -2.169708 0.142344 -0.516264 0.566613 1.043998 0.800323 -0.599090 -0.414275 0.218956 -0.681241 0.047180 0.649395 0.954053
efficiency 0.137677 -0.694779 0.061031 0.201413 0.638951 -0.608872 0.112633 0.757627 -0.167450 -2.591345 0.860301 -0.368259 0.936325 0.247135 0.164087 -1.227620 1.423192 -0.674047 0.164704 -0.261513 0.705710 0.526821 -0.992741 -0.125864 -0.795953 0.095898 -0.663328 -1.269403 0.489028 -0.091634
either 0.461439 0.110046 0.475957 -0.532736 0.769122 -0.065091 1.254862 -0.438812 -0.932918 -0.238768 0.470926 -0.541589 -0.134156 -0.513716 -0.742728 -2.127394 0.071408 -0.009065 0.529461 -0.828714 0.410858 0.744193 -0.114606 0.810516 -0.841171 0.139876 1.020292 -1.329016 0.336556 -0.243148
electronic 0.121451 -0.501050 -0.292061 -0.319358 0.671179 0.111014 0.870406 -0.814040 -0.470624 -0.500087 0.320795 -0.259134 0.322842 -0.483368 -1.193947 -1.228044 0.234660 0.198463 0.393583 -0.323841 0.404491 1.094626 -0.099976 -0.024469 -1.122679 -0.310648 1.648469 -0.178713 0.479214 -0.515754
else 0.148693 -0.455766 -0.338933 0.958752 1.373903 -0.048049 -0.727920 -0.313796 0.571939 1.650586 -0.178770 1.089978 0.670983 -0.471267 0.437398 -0.885999 0.911557 0.685432 0.081909 0.117389 1.216820 -0.486653 -1.094981 -0.010104 0.458679 0.151692 0.680704 -1.741006 0.336245 -0.013446
email -0.476137 1.347284 0.899482 -1.351884 0.269225 -0.191152 0.832801 0.068162 -0.416764 -0.346935 -0.003801 1.353120 0.637459 0.261820 -0.101472 -0.408237 0.038885 -1.112879 -0.985572 0.729786 -0.196297 0.688887 0.247989 -0.348473 -0.811567 -0.225537 0.844897 0.699256 1.048447 -1.793848
emails 0.318524 0.760126 1.828008 -1.029326 0.658399 -1.160536 -1.072307 0.139130 -0.120643 -0.235944 -0.521502 0.709283 0.473532 1.084306 -0.008926 0.595697 0.449137 -0.140249 -0.831198 -0.035146 0.344630 -0.436480 -1.067363 -0.107724 -0.800896 0.283349 0.066273 1.364561 1.332819 -0.921239
employee -1.119019 0.435116 1.073012 0.102219 -0.194879 -0.634941 -0.230300 0.464721 -0.815978 -2.681193 0.936141 0.719139 0.236700 0.280670 -0.557388 -0.777125 0.153685 0.651059 -1.005250 -0.814603 0.594657 0.648776 -0.080870 -0.680563 -0.704953 0.382729 -0.516824 -0.278734 0.342656 0.197655
employees 0.862938 0.162320 1.108907 0.077801 1.732187 0.083941 -0.250370 0.135112 -0.750076 1.090361 0.604206 -0.107587 -0.866157 0.644454 -0.057412 -0.102065 -0.067930 -0.616313 0.644198 0.070601 0.704992 1.390539 -0.608572 0.927099 0.284262 -0.508598 -1.232230 0.601746 1.010946 0.431518
enable 0.944145 -0.079596 1.225748 -0.645876 0.528386 -1.098653 0.274704 0.863207 -1.286997 0.585901 0.443720 0.279146 0.187719 0.283427 -0.730748 0.538617 -0.139547 -0.126903 -0.223019 1.163412 0.954441 -0.167668 -1.238978 -0.384351 -1.236207 0.594609 -0.119642 1.693210 -0.172956 -1.567442
enabling 0.736721 -0.128325 -0.411954 0.261313 0.837386 -2.271381 -1.124938 0.515980 0.375502 0.159537 0.569806 -0.094427 1.238795 -0.075821 0.101254 -0.601510 0.206293 -0.047518 0.477672 -0.118899 0.541261 -0.936356 -1.902806 0.351416 0.154572 -0.114709 0.703131 0.419347 -0.024663 -0.586625
ended -0.220903 -0.404886 0.971269 -0.117219 1.034767 1.137346 0.455490 0.318276 -0.444162 -0.777816 0.565726 0.792640 0.237699 -0.095362 0.071117 -0.506103 -0.116393 0.003749 -0.536696 0.979551 1.055028 0.915156 0.057437 -0.998243 -0.863446 -1.276294 0.648568 0.616874 -0.449346 -1.246774
enjoy 1.101258 0.601281 0.598259 -0.694869 0.604370 -1.495349 0.192503 1.318067 -1.532582 -0.486688 0.963450 -0.296356 -0.170134 -0.252517 0.152025 -1.440298 -0.803941 -0.142426 0.425522 -1.185758 0.336986 0.453920 0.222776 -1.344145 -0.874404 0.478897 -0.137679 1.060932 -0.152658 0.966646
enjoyed -0.379957 -0.864262 -0.200606 -0.939904 0.534943 -1.029236 -0.114165 0.435882 0.285478 -0.449249 0.717061 1.062058 0.336032 0.400793 0.166346 -2.027213 1.523783 -0.363877 -1.315680 0.920411 -0.193219 0.169971 0.675055 -0.255573 -0.513578 -0.742250 0.560015 0.640480 -1.158964 -0.426175
enjoys -0.273738 0.805317 -0.033215 -0.754345 -0.874906 0.094063 -0.580082 -0.469435 -0.570528 -0.458444 -0.177304 1.128961 1.328165 -0.445658 0.823378 0.197933 0.365113 -0.466057 -1.637913 1.607664 0.995872 0.924320 -0.242874 -1.402291 0.629205 0.370711 -1.200900 -0.116920 0.735744 -0.647977
enough 1.162145 -0.045591 -0.587385 -0.061950 0.486462 0.254779 -0.071670 -1.869212 0.312607 -1.092726 0.107482 0.602210 0.174830 -0.354508 -0.047119 -1.206677 -0.332265 -0.512707 -1.845891 -0.163787 1.159076 0.340146 -1.795275 0.475538 -0.201052 0.152513 0.260629 -0.316101 1.123207 0.542261
entire 0.017488 -0.083499 0.407224 -0.523825 1.470467 0.051286 -0.461879 -1.166764 -0.304527 -0.152108 0.173312 0.364248 1.565068 0.801231 -0.452270 -0.035778 -0.514086 0.092934 -0.983456 1.775794 0.144908 0.385491 0.188937 -0.074544 0.382677 -0.691181 -0.984391 1.794434 1.278426 0.055526
etc -0.002922 0.733083 1.283376 0.711730 0.226161 0.901766 0.844482 0.237534 0.089169 0.568414 -0.635757 0.558170 0.733045 0.778470 0.794334 -0.164603 0.401652 0.136367 0.200599 -0.510822 0.871899 0.751060 -0.187160 0.674561 -0.626518 -1.007645 -1.101430 1.597104 0.899435 -0.261928
even -0.219869 0.762386 -0.027740 0.344710 1.403957 1.304388 -0.135145 -0.830179 -0.605880 -1.090724 0.706168 -0.605941 1.445724 -0.039742 0.285304 0.450974 -0.371737 -0.638452 0.966719 -0.025244 0.849845 1.325359 0.461740 0.275852 0.588482 -0.511965 -0.321090 1.858780 -0.665272 -0.483290
ever 1.254015 0.021771 0.349888 -0.150933 1.178543 -0.296714 -1.387233 0.479079 -1.278577 1.246395 1.287527 -0.440176 -0.219296 -0.007990 -0.389338 0.885152 -0.931150 -0.273905 0.131026 -0.422445 1.280572 -0.264118 -0.133958 -0.590683 0.021081 -0.631126 0.046880 0.950053 0.036838 -0.252237
every -1.018056 0.996572 0.363499 0.140170 0.575316 0.042465 -2.278379 -0.720241 0.803302 1.991308 0.561716 1.020749 -0.974209 0.327011 0.123269 -0.398505 0.586384 -2.549767 -0.097062 0.003372 1.400314 1.041494 -0.654949 -0.846025 -0.023954 -0.656381 -0.146050 -0.004638 0.757416 0.289480
everybody -0.639498 -0.505068 0.245560 -0.929622 0.214191 -1.108519 0.209120 -0.111725 -0.697154 -1.657711 1.213457 1.858207 1.263681 -0.185149 0.692403 -1.267495 -0.004951 0.161240 -0.429262 -0.181504 -0.062307 2.262977 0.226064 -1.176307 0.672580 -0.236908 -0.997822 0.209597 -0.586830 0.839161
everyday -0.819173 -0.303832 0.402321 -1.140548 0.350416 -1.137006 1.314222 -0.453246 -1.558633 0.015219 0.625233 1.036774 -0.694440 -0.587108 -0.500657 -2.394486 -0.358588 -0.096442 -0.437494 0.234235 1.207776 0.555087 -0.140973 -0.027642 0.786323 0.028956 0.886546 1.168559 0.450298 -0.380745
everything 1.309093 0.256200 0.575045 0.338500 1.958279 -0.385134 -1.398041 0.278028 -0.171576 1.370178 0.550158 0.641267 0.358880 0.817695 0.804931 -1.346169 0.143587 -0.480884 0.271304 0.047894 -0.359366 0.244454 1.020169 1.753115 0.669061 0.498824 -1.306723 -0.331701 0.759231 -0.083914
everywhere 0.187022 -0.635775 -0.609168 0.707912 1.386276 -0.853460 0.516571 -0.397279 -0.602509 0.788649 -0.566999 0.374668 0.614733 0.377956 0.799762 -0.282139 1.519870 0.573377 -0.067442 0.428513 0.936319 1.106638 -0.237952 0.243361 0.404654 -0.894510 0.652488 -0.476070 1.763943 -0.078935
excellent 0.477486 -0.189827 0.265505 0.490316 0.678471 1.253613 -1.109252 0.825719 -0.395559 0.467370 0.729531 1.441369 0.872806 1.377098 0.103204 0.681516 0.828808 -0.555525 -0.091215 -0.069991 0.359807 0.956614 -0.082775 -0.571081 -0.980070 -0.281785 -1.334627 0.655594 0.697902 -0.271429
except 0.888101 -0.039822 -0.175626 0.399398 -0.028469 -0.913360 -0.395013 1.329810 0.758299 0.736168 0.412952 0.380037 1.004680 0.890748 -1.690166 -1.869205 0.401587 -0.700169 -0.047128 0.112926 0.421043 0.572897 0.023452 0.755683 0.040462 0.362471 -0.556753 -0.241863 0.514234 -0.659544
exchange -0.119755 -1.611870 -0.268737 0.503623 3.039772 0.113463 -0.347963 -0.483004 -0.082543 0.423200 0.787792 0.111506 1.115642 1.089169 0.126136 -0.549758 -0.128260 -0.126620 1.305284 0.068312 0.172782 0.501137 0.351439 -0.615389 -0.045926 -0.656855 0.596693 -0.825429 -1.529683 -1.216792
exchanged 0.282066 -0.032539 -0.671517 0.290897 0.817035 0.071888 -0.686948 -1.525473 0.524106 0.349544 0.747539 -0.212631 0.760603 0.578522 -0.661765 -1.541888 1.076389 0.751573 -0.542951 -1.863178 0.282782 1.708380 -0.128774 0.584821 -0.659047 -0.186702 0.250443 -0.650928 -0.552644 -1.158438
exchanging -0.451249 -0.117328 1.099560 0.410826 1.291284 -0.647203 0.246322 -0.231071 -0.060785 -0.426736 -0.629816 -0.215960 0.375301 -0.131792 0.410987 -0.513960 1.020265 -0.150221 -0.116390 -0.599309 0.441046 0.137240 -1.132104 0.046217 -0.817786 0.375214 -0.556084 -0.162093 0.560144 0.325057
excuse 1.547209 0.283674 0.614737 -1.766420 0.451035 -0.393029 -0.337568 0.194998 -0.377401 0.478937 -0.417109 0.317278 0.055318 0.124594 -0.559200 -1.262005 -0.820648 -1.543926 -0.304603 -1.368641 0.111881 -0.947951 -0.511137 -0.043374 -1.033058 -0.821383 0.373902 -0.415697 -0.178092 -0.476308
expand -0.550943 -1.210630 1.516533 -0.346066 0.722572 1.070528 -0.351525 0.236192 0.173662 -0.423145 -0.292408 0.555132 0.901256 0.111411 -0.093502 0.128098 0.573565 -0.528423 -0.850230 -0.730077 0.322191 0.530589 -0.683144 -0.249351 0.452405 0.130695 1.177288 -0.124495 0.548049 0.660464
expanded 0.688703 -1.591449 0.550847 -0.592555 1.101902 -0.722006 -1.203793 0.189283 0.308923 -0.616444 1.032416 -1.084177 0.245424 0.302530 -0.744994 -0.284429 0.562135 0.043736 0.457549 -0.223752 1.239350 1.080370 -1.405610 -0.836121 -0.211503 -0.448022 -0.039909 0.391327 0.574688 -0.193951
expansion 0.716052 -0.947004 1.484130 -0.695586 1.459535 -1.204318 -0.830802 -0.164436 0.123412 -0.844911 1.265453 -0.243575 -0.041463 0.104853 0.134882 -0.149020 -0.201112 0.204090 -1.812453 -0.023196 -0.253453 0.624556 -0.543617 0.220204 -0.418076 0.588705 0.395437 0.929142 0.606026 0.431185
expect 1.142068 -0.846000 0.336648 -0.490437 0.899979 -0.646726 0.653456 -0.427343 -0.364604 -0.612146 -0.029228 0.946658 0.788931 0.082424 -0.044050 -1.549912 0.204017 0.103471 0.685214 0.275242 0.533707 0.303082 -0.854870 -0.720686 0.691811 -1.632873 0.986155 -0.333138 0.073516 -0.509165
expected 0.012367 0.278186 -0.105815 0.935365 -0.350411 -0.543259 -0.320256 0.443855 -0.734552 -1.392081 0.286129 1.083278 1.009320 0.260551 -0.288266 -1.428375 1.135681 1.484312 -0.510993 0.339822 0.462332 0.347478 -0.940545 0.817595 -1.249789 1.235121 0.578868 -0.020476 -0.140612 -0.355339
experience 0.548840 -0.105075 -1.183227 0.572575 2.186614 -0.190712 0.551012 -0.343573 -0.310603 -0.770875 0.336290 2.300755 0.134659 -0.686962 1.154883 -0.670514 -0.455133 -0.107005 -0.137751 -1.758042 0.392078 0.751797 -0.860490 1.004238 -0.197003 -1.612762 -1.026693 1.158340 -0.367838 1.119479
experienced 1.733791 -0.273916 0.370915 -0.264738 1.455118 -0.220586 0.424159 -1.150066 -1.011745 0.650069 0.117393 -0.047542 1.244905 0.824111 -0.459592 -0.616298 -1.113106 -0.402765 0.374802 0.786091 0.107801 -0.714804 0.931228 -0.565715 0.993092 -0.927264 0.649347 0.305914 0.926494 -0.250893
extensive -0.714415 -0.308332 1.126076 -0.179743 0.435936 0.728188 -0.436243 -0.139850 -1.097060 -1.127461 -0.119459 0.956606 0.837121 0.917965 0.849368 -0.607845 0.396854 -0.230112 -0.491474 1.207447 0.477669 0.837498 0.383818 -1.210419 0.352212 -1.031285 -0.221184 0.377238 1.380409 1.396821
external -1.182173 0.898785 0.254550 0.129445 -0.211319 -0.420119 0.053448 -1.243109 0.139829 -0.375452 0.347597 1.696898 0.679227 0.507985 0.078920 -1.008475 0.260950 -0.883653 -1.142031 -0.445556 0.403039 -0.430338 0.253958 0.580712 0.085950 1.259728 0.094810 -1.577545 0.325947 -0.615522
extra 0.124157 -0.035623 0.883032 -1.123064 1.015829 0.765416 -0.758627 -0.424457 -1.036405 -0.461891 0.306994 0.785081 0.217416 0.905859 -0.392720 1.644808 1.219286 -1.585245 -1.040984 -0.645082 1.333821 0.804409 0.322986 -0.075254 -0.547085 -0.940820 -0.548047 -0.526727 -0.911511 -0.332032
eyes 0.003386 0.260177 0.738088 -0.361241 0.692976 -1.068342 0.641055 -0.172038 -0.116560 -1.303154 -0.457149 1.015441 1.095657 -0.128252 0.369170 -1.329114 -0.068036 0.162078 0.086605 0.301002 0.344355 0.382292 -0.380080 -0.106449 0.100294 -1.575974 -0.256675 0.277775 0.446250 -0.151765
f450 1.184981 0.944262 -0.033089 1.547674 1.243639 -0.400842 0.041805 1.043795 -0.722971 -0.709797 -0.378765 0.874568 1.000010 -0.210217 -0.379975 -0.168473 -1.970365 0.152526 0.825976 0.889076 0.195202 0.123415 0.476889 -0.337400 -0.769424 -1.771638 0.292618 0.495351 -0.167529 -0.307434
facebook -0.328120 1.125704 0.890216 -1.484640 -0.510023 -0.673951 0.526370 0.227059 -0.062639 -0.374262 -0.223614 0.560267 0.612878 0.342027 -0.319694 -0.500205 -0.195752 -1.896332 -0.673777 0.362258 1.303505 2.059076 0.946028 0.098628 -0.253323 -0.852717 -0.548002 1.045596 0.603170 -2.206592
factory 1.406062 0.672977 0.818207 0.834314 0.295745 0.759537 -0.457113 -0.108471 -0.580207 0.556398 0.031900 -1.042942 1.796679 0.110660 -2.052296 -0.341244 -0.391255 -0.606809 -0.269316 0.328229 0.453606 0.099442 1.010853 -0.313313 0.966481 1.308871 0.945033 -0.172160 -1.045321 -0.409655
failed -0.277922 0.478204 0.519280 -0.052802 1.828752 0.700179 -0.542159 0.020812 -0.040650 0.963265 -0.162591 1.384264 0.119538 1.851958 0.436534 -0.196558 0.616958 -1.346654 -0.528941 0.216143 0.050838 -0.618167 1.027710 -0.943132 -1.001596 0.586226 1.422129 0.946879 0.003528 1.149652
